{"learner":{"attributes":{"scikit_learn":"{\"_estimator_type\": \"regressor\"}"},"feature_names":[],"feature_types":[],"gradient_booster":{"model":{"gbtree_model_param":{"num_parallel_tree":"1","num_trees":"300"},"iteration_indptr":[0,1,2,3,4,5,6,7,8,9,10,11,12,13,14,15,16,17,18,19,20,21,22,23,24,25,26,27,28,29,30,31,32,33,34,35,36,37,38,39,40,41,42,43,44,45,46,47,48,49,50,51,52,53,54,55,56,57,58,59,60,61,62,63,64,65,66,67,68,69,70,71,72,73,74,75,76,77,78,79,80,81,82,83,84,85,86,87,88,89,90,91,92,93,94,95,96,97,98,99,100,101,102,103,104,105,106,107,108,109,110,111,112,113,114,115,116,117,118,119,120,121,122,123,124,125,126,127,128,129,130,131,132,133,134,135,136,137,138,139,140,141,142,143,144,145,146,147,148,149,150,151,152,153,154,155,156,157,158,159,160,161,162,163,164,165,166,167,168,169,170,171,172,173,174,175,176,177,178,179,180,181,182,183,184,185,186,187,188,189,190,191,192,193,194,195,196,197,198,199,200,201,202,203,204,205,206,207,208,209,210,211,212,213,214,215,216,217,218,219,220,221,222,223,224,225,226,227,228,229,230,231,232,233,234,235,236,237,238,239,240,241,242,243,244,245,246,247,248,249,250,251,252,253,254,255,256,257,258,259,260,261,262,263,264,265,266,267,268,269,270,271,272,273,274,275,276,277,278,279,280,281,282,283,284,285,286,287,288,289,290,291,292,293,294,295,296,297,298,299,300],"tree_info":[0,0,0,0,0,0,0,0,0,0,0,0,0,0,0,0,0,0,0,0,0,0,0,0,0,0,0,0,0,0,0,0,0,0,0,0,0,0,0,0,0,0,0,0,0,0,0,0,0,0,0,0,0,0,0,0,0,0,0,0,0,0,0,0,0,0,0,0,0,0,0,0,0,0,0,0,0,0,0,0,0,0,0,0,0,0,0,0,0,0,0,0,0,0,0,0,0,0,0,0,0,0,0,0,0,0,0,0,0,0,0,0,0,0,0,0,0,0,0,0,0,0,0,0,0,0,0,0,0,0,0,0,0,0,0,0,0,0,0,0,0,0,0,0,0,0,0,0,0,0,0,0,0,0,0,0,0,0,0,0,0,0,0,0,0,0,0,0,0,0,0,0,0,0,0,0,0,0,0,0,0,0,0,0,0,0,0,0,0,0,0,0,0,0,0,0,0,0,0,0,0,0,0,0,0,0,0,0,0,0,0,0,0,0,0,0,0,0,0,0,0,0,0,0,0,0,0,0,0,0,0,0,0,0,0,0,0,0,0,0,0,0,0,0,0,0,0,0,0,0,0,0,0,0,0,0,0,0,0,0,0,0,0,0,0,0,0,0,0,0,0,0,0,0,0,0,0,0,0,0,0,0,0,0,0,0,0,0,0,0,0,0,0,0,0,0,0,0,0,0],"trees":[{"base_weights":[-8.095241E0,-6.244446E-1,1.9259237E0,3.9722213E-1,-2.5277787E-1],"categories":[],"categories_nodes":[],"categories_segments":[],"categories_sizes":[],"default_left":[0,0,0,0,0],"id":0,"left_children":[1,-1,3,-1,-1],"loss_changes":[3.3225912E2,0E0,1.6621811E2,0E0,0E0],"parents":[2147483647,0,0,2,2],"right_children":[2,-1,4,-1,-1],"split_conditions":[9.9E1,-6.244446E-1,1.05E2,3.9722213E-1,-2.5277787E-1],"split_indices":[3,0,3,0,0],"split_type":[0,0,0,0,0],"sum_hessian":[6E0,4E0,2E0,1E0,1E0],"tree_param":{"num_deleted":"0","num_feature":"4","num_nodes":"5","size_leaf_vector":"1"}},{"base_weights":[-4.7714624E0,-5.9946686E-1,5.4437466E0,-2.4645844E-1,5.272221E-1],"categories":[],"categories_nodes":[],"categories_segments":[],"categories_sizes":[],"default_left":[0,0,0,0,0],"id":1,"left_children":[1,-1,3,-1,-1],"loss_changes":[6.551237E2,0E0,2.6361163E2,0E0,0E0],"parents":[2147483647,0,0,2,2],"right_children":[2,-1,4,-1,-1],"split_conditions":[9.9E1,-5.9946686E-1,2.3741035E1,-2.4645844E-1,5.272221E-1],"split_indices":[3,0,0,0,0],"split_type":[0,0,0,0,0],"sum_hessian":[7E0,4E0,3E0,1E0,2E0],"tree_param":{"num_deleted":"0","num_feature":"4","num_nodes":"5","size_leaf_vector":"1"}},{"base_weights":[4.3305616E0,-4.3073145E-1,6.204814E-1,5.8462054E-1,-4.7077027E-1],"categories":[],"categories_nodes":[],"categories_segments":[],"categories_sizes":[],"default_left":[0,0,0,0,0],"id":2,"left_children":[1,3,-1,-1,-1],"loss_changes":[3.1307965E2,7.6362366E2,0E0,0E0,0E0],"parents":[2147483647,0,0,1,1],"right_children":[2,4,-1,-1,-1],"split_conditions":[3.7932095E1,3.1601095E1,6.204814E-1,5.8462054E-1,-4.7077027E-1],"split_indices":[0,0,0,0,0],"split_type":[0,0,0,0,0],"sum_hessian":[7E0,5E0,2E0,2E0,3E0],"tree_param":{"num_deleted":"0","num_feature":"4","num_nodes":"5","size_leaf_vector":"1"}},{"base_weights":[1.2660803E0,-6.038087E-1,4.9749514E-1],"categories":[],"categories_nodes":[],"categories_segments":[],"categories_sizes":[],"default_left":[0,0,0],"id":3,"left_children":[1,-1,-1],"loss_changes":[1.1629127E3,0E0,0E0],"parents":[2147483647,0,0],"right_children":[2,-1,-1],"split_conditions":[8.9E1,-6.038087E-1,4.9749514E-1],"split_indices":[3,0,0],"split_type":[0,0,0],"sum_hessian":[8E0,3E0,5E0],"tree_param":{"num_deleted":"0","num_feature":"4","num_nodes":"3","size_leaf_vector":"1"}},{"base_weights":[-1.0390034E0,-5.8116597E-1,7.6362505E0,-2.673498E-1,6.109406E-1],"categories":[],"categories_nodes":[],"categories_segments":[],"categories_sizes":[],"default_left":[0,0,0,0,0],"id":4,"left_children":[1,-1,3,-1,-1],"loss_changes":[8.233316E2,0E0,3.6281653E2,0E0,0E0],"parents":[2147483647,0,0,2,2],"right_children":[2,-1,4,-1,-1],"split_conditions":[8.9E1,-5.8116597E-1,2.3741035E1,-2.673498E-1,6.109406E-1],"split_indices":[3,0,0,0,0],"split_type":[0,0,0,0,0],"sum_hessian":[7E0,3E0,4E0,1E0,3E0],"tree_param":{"num_deleted":"0","num_feature":"4","num_nodes":"5","size_leaf_vector":"1"}},{"base_weights":[-1.0872498E0,-5.593721E-1,7.210355E0,5.281854E-1,1.4535497E0,-2.381218E-1,3.4713802E-1],"categories":[],"categories_nodes":[],"categories_segments":[],"categories_sizes":[],"default_left":[0,0,0,0,0,0,0],"id":5,"left_children":[1,-1,3,-1,5,-1,-1],"loss_changes":[7.5112463E2,0E0,8.116812E1,0E0,1.3542702E2,0E0,0E0],"parents":[2147483647,0,0,2,2,4,4],"right_children":[2,-1,4,-1,6,-1,-1],"split_conditions":[8.9E1,-5.593721E-1,3.1601095E1,5.281854E-1,3.248442E1,-2.381218E-1,3.4713802E-1],"split_indices":[3,0,0,0,0,0,0],"split_type":[0,0,0,0,0,0,0],"sum_hessian":[7E0,3E0,4E0,2E0,2E0,1E0,1E0],"tree_param":{"num_deleted":"0","num_feature":"4","num_nodes":"7","size_leaf_vector":"1"}},{"base_weights":[1.2300423E0,-5.3999275E-1,6.2099924E0,-2.7387068E-1,9.070796E0,2.8682683E0,5.727496E-1,4.472889E-1,-2.3216878E-1],"categories":[],"categories_nodes":[],"categories_segments":[],"categories_sizes":[],"default_left":[0,0,0,0,0,0,0,0,0],"id":6,"left_children":[1,-1,3,-1,5,7,-1,-1,-1],"loss_changes":[6.0624164E2,0E0,2.8373206E2,0E0,5.5872253E1,1.7849486E2,0E0,0E0,0E0],"parents":[2147483647,0,0,2,2,4,4,5,5],"right_children":[2,-1,4,-1,6,8,-1,-1,-1],"split_conditions":[7.7E1,-5.3999275E-1,2.3741035E1,-2.7387068E-1,5E1,2.628105E1,5.727496E-1,4.472889E-1,-2.3216878E-1],"split_indices":[3,0,0,0,2,0,0,0,0],"split_type":[0,0,0,0,0,0,0,0,0],"sum_hessian":[8E0,2E0,6E0,1E0,5E0,2E0,3E0,1E0,1E0],"tree_param":{"num_deleted":"0","num_feature":"4","num_nodes":"9","size_leaf_vector":"1"}},{"base_weights":[4.1278853E0,-3.2830238E-1,7.579881E0,-2.6702386E-1,6.072545E-1],"categories":[],"categories_nodes":[],"categories_segments":[],"categories_sizes":[],"default_left":[0,0,0,0,0],"id":7,"left_children":[1,-1,3,-1,-1],"loss_changes":[2.7126236E2,0E0,3.5978125E2,0E0,0E0],"parents":[2147483647,0,0,2,2],"right_children":[2,-1,4,-1,-1],"split_conditions":[7.7E1,-3.2830238E-1,2.3741035E1,-2.6702386E-1,6.072545E-1],"split_indices":[3,0,0,0,0],"split_type":[0,0,0,0,0],"sum_hessian":[5E0,1E0,4E0,1E0,3E0],"tree_param":{"num_deleted":"0","num_feature":"4","num_nodes":"5","size_leaf_vector":"1"}},{"base_weights":[1.0351137E0,-3.9751613E-1,6.2193527E0,4.7333694E-1,8.988495E-1,-2.4154587E-1,3.0895957E-1],"categories":[],"categories_nodes":[],"categories_segments":[],"categories_sizes":[],"default_left":[0,0,0,0,0,0,0],"id":8,"left_children":[1,-1,3,-1,5,-1,-1],"loss_changes":[3.755244E2,0E0,7.787944E1,0E0,1.20616554E2,0E0,0E0],"parents":[2147483647,0,0,2,2,4,4],"right_children":[2,-1,4,-1,6,-1,-1],"split_conditions":[8.9E1,-3.9751613E-1,3.1601095E1,4.7333694E-1,3.248442E1,-2.4154587E-1,3.0895957E-1],"split_indices":[3,0,0,0,0,0,0],"split_type":[0,0,0,0,0,0,0],"sum_hessian":[6E0,2E0,4E0,2E0,2E0,1E0,1E0],"tree_param":{"num_deleted":"0","num_feature":"4","num_nodes":"7","size_leaf_vector":"1"}},{"base_weights":[7.1219414E-1,-5.0647014E-1,5.687871E-1],"categories":[],"categories_nodes":[],"categories_segments":[],"categories_sizes":[],"default_left":[0,0,0],"id":9,"left_children":[1,-1,-1],"loss_changes":[9.2449866E2,0E0,0E0],"parents":[2147483647,0,0],"right_children":[2,-1,-1],"split_conditions":[8.9E1,-5.0647014E-1,5.687871E-1],"split_indices":[3,0,0],"split_type":[0,0,0],"sum_hessian":[6E0,3E0,3E0],"tree_param":{"num_deleted":"0","num_feature":"4","num_nodes":"3","size_leaf_vector":"1"}},{"base_weights":[6.988856E-1,-4.874775E-1,7.5480285E0,1.9352722E0,4.935294E-1,3.9487228E-1,-2.4972688E-1],"categories":[],"categories_nodes":[],"categories_segments":[],"categories_sizes":[],"default_left":[0,0,0,0,0,0,0],"id":10,"left_children":[1,-1,3,5,-1,-1,-1],"loss_changes":[7.176553E2,0E0,5.9113495E1,1.6339426E2,0E0,0E0,0E0],"parents":[2147483647,0,0,2,2,3,3],"right_children":[2,-1,4,6,-1,-1,-1],"split_conditions":[8.9E1,-4.874775E-1,9.9E1,2.628105E1,4.935294E-1,3.9487228E-1,-2.4972688E-1],"split_indices":[3,0,3,0,0,0,0],"split_type":[0,0,0,0,0,0,0],"sum_hessian":[8E0,3E0,5E0,2E0,3E0,1E0,1E0],"tree_param":{"num_deleted":"0","num_feature":"4","num_nodes":"7","size_leaf_vector":"1"}},{"base_weights":[-5.822914E-1,-4.224641E0,4.662369E-1,-5.979477E-1,-3.8509235E-1,-3.254322E0,2.5068876E-1,1.150144E0,-4.11693E-1,-2.9873964E-1,3.8500044E-1],"categories":[],"categories_nodes":[],"categories_segments":[],"categories_sizes":[],"default_left":[0,0,0,0,0,0,0,0,0,0,0],"id":11,"left_children":[1,3,-1,5,-1,7,-1,9,-1,-1,-1],"loss_changes":[4.002423E2,9.628078E1,0E0,9.085062E1,0E0,9.719894E1,0E0,1.8600807E2,0E0,0E0,0E0],"parents":[2147483647,0,0,1,1,3,3,5,5,7,7],"right_children":[2,4,-1,6,-1,8,-1,10,-1,-1,-1],"split_conditions":[3.7932095E1,3.1601095E1,4.662369E-1,2.6997694E1,-3.8509235E-1,2.628105E1,2.5068876E-1,2.3741035E1,-4.11693E-1,-2.9873964E-1,3.8500044E-1],"split_indices":[0,0,0,0,0,0,0,0,0,0,0],"split_type":[0,0,0,0,0,0,0,0,0,0,0],"sum_hessian":[9E0,7E0,2E0,4E0,3E0,3E0,1E0,2E0,1E0,1E0,1E0],"tree_param":{"num_deleted":"0","num_feature":"4","num_nodes":"11","size_leaf_vector":"1"}},{"base_weights":[-2.4495823E0,-4.5442352E-1,2.3846066E0,-2.912712E-1,5.1916976E0,4.1319796E-1,3.8887024E-1,-2.338564E-1,2.6302168E-1],"categories":[],"categories_nodes":[],"categories_segments":[],"categories_sizes":[],"default_left":[0,0,0,0,0,0,0,0,0],"id":12,"left_children":[1,-1,3,-1,5,-1,7,-1,-1],"loss_changes":[3.105152E2,0E0,1.6852168E2,0E0,7.05641E1,0E0,9.864171E1,0E0,0E0],"parents":[2147483647,0,0,2,2,4,4,6,6],"right_children":[2,-1,4,-1,6,-1,8,-1,-1],"split_conditions":[8.9E1,-4.5442352E-1,2.3741035E1,-2.912712E-1,3.1601095E1,4.1319796E-1,3.248442E1,-2.338564E-1,2.6302168E-1],"split_indices":[3,0,0,0,0,0,0,0,0],"split_type":[0,0,0,0,0,0,0,0,0],"sum_hessian":[8E0,3E0,5E0,1E0,4E0,2E0,2E0,1E0,1E0],"tree_param":{"num_deleted":"0","num_feature":"4","num_nodes":"9","size_leaf_vector":"1"}},{"base_weights":[-8.038845E-1,-4.362404E-1,1.645279E-1],"categories":[],"categories_nodes":[],"categories_segments":[],"categories_sizes":[],"default_left":[0,0,0],"id":13,"left_children":[1,-1,-1],"loss_changes":[2.881636E2,0E0,0E0],"parents":[2147483647,0,0],"right_children":[2,-1,-1],"split_conditions":[7.7E1,-4.362404E-1,1.645279E-1],"split_indices":[3,0,0],"split_type":[0,0,0],"sum_hessian":[7E0,2E0,5E0],"tree_param":{"num_deleted":"0","num_feature":"4","num_nodes":"3","size_leaf_vector":"1"}},{"base_weights":[-1.022728E0,-4.3567592E-1,4.4232208E-1],"categories":[],"categories_nodes":[],"categories_segments":[],"categories_sizes":[],"default_left":[0,0,0],"id":14,"left_children":[1,-1,-1],"loss_changes":[6.8429724E2,0E0,0E0],"parents":[2147483647,0,0],"right_children":[2,-1,-1],"split_conditions":[9.9E1,-4.3567592E-1,4.4232208E-1],"split_indices":[3,0,0],"split_type":[0,0,0],"sum_hessian":[7E0,4E0,3E0],"tree_param":{"num_deleted":"0","num_feature":"4","num_nodes":"3","size_leaf_vector":"1"}},{"base_weights":[-1.6122818E0,-4.121954E-1,3.0775158E0,-2.9916057E-1,6.0863037E0,2.007904E0,4.0679678E-1,3.718241E-1,-2.2123127E-1],"categories":[],"categories_nodes":[],"categories_segments":[],"categories_sizes":[],"default_left":[0,0,0,0,0,0,0,0,0],"id":15,"left_children":[1,-1,3,-1,5,7,-1,-1,-1],"loss_changes":[3.0527963E2,0E0,1.9998648E2,0E0,2.54599E1,1.3766211E2,0E0,0E0,0E0],"parents":[2147483647,0,0,2,2,4,4,5,5],"right_children":[2,-1,4,-1,6,8,-1,-1,-1],"split_conditions":[8.9E1,-4.121954E-1,2.3741035E1,-2.9916057E-1,5E1,2.628105E1,4.0679678E-1,3.718241E-1,-2.2123127E-1],"split_indices":[3,0,0,0,2,0,0,0,0],"split_type":[0,0,0,0,0,0,0,0,0],"sum_hessian":[8E0,3E0,5E0,1E0,4E0,2E0,2E0,1E0,1E0],"tree_param":{"num_deleted":"0","num_feature":"4","num_nodes":"9","size_leaf_vector":"1"}},{"base_weights":[-7.2576666E-1,-3.9343664E-1,2.9666774E0,-2.916815E-1,5.8934646E0,1.9577051E0,3.9323682E-1,3.625284E-1,-2.1570054E-1],"categories":[],"categories_nodes":[],"categories_segments":[],"categories_sizes":[],"default_left":[0,0,0,0,0,0,0,0,0],"id":16,"left_children":[1,-1,3,-1,5,7,-1,-1,-1],"loss_changes":[2.3434401E2,0E0,1.8892004E2,0E0,2.3395416E1,1.3086502E2,0E0,0E0,0E0],"parents":[2147483647,0,0,2,2,4,4,5,5],"right_children":[2,-1,4,-1,6,8,-1,-1,-1],"split_conditions":[7.7E1,-3.9343664E-1,2.3741035E1,-2.916815E-1,9.9E1,2.628105E1,3.9323682E-1,3.625284E-1,-2.1570054E-1],"split_indices":[3,0,0,0,3,0,0,0,0],"split_type":[0,0,0,0,0,0,0,0,0],"sum_hessian":[7E0,2E0,5E0,1E0,4E0,2E0,2E0,1E0,1E0],"tree_param":{"num_deleted":"0","num_feature":"4","num_nodes":"9","size_leaf_vector":"1"}},{"base_weights":[-6.177025E-1,-3.1530926E-1,2.028312E-1],"categories":[],"categories_nodes":[],"categories_segments":[],"categories_sizes":[],"default_left":[0,0,0],"id":17,"left_children":[1,-1,-1],"loss_changes":[2.3830042E2,0E0,0E0],"parents":[2147483647,0,0],"right_children":[2,-1,-1],"split_conditions":[9.9E1,-3.1530926E-1,2.028312E-1],"split_indices":[3,0,0],"split_type":[0,0,0],"sum_hessian":[7E0,3E0,4E0],"tree_param":{"num_deleted":"0","num_feature":"4","num_nodes":"3","size_leaf_vector":"1"}},{"base_weights":[-3.4072633E0,9.585037E-1,-5.0222697E0,-2.8946018E-1,3.6134797E-1,-3.6634517E-1,-2.753347E-1,1.938488E-1,-2.144989E-1],"categories":[],"categories_nodes":[],"categories_segments":[],"categories_sizes":[],"default_left":[0,0,0,0,0,0,0,0,0],"id":18,"left_children":[1,3,5,-1,-1,-1,7,-1,-1],"loss_changes":[6.121981E1,1.6873145E2,6.362233E1,0E0,0E0,0E0,6.664228E1,0E0,0E0],"parents":[2147483647,0,0,1,1,2,2,6,6],"right_children":[2,4,6,-1,-1,-1,8,-1,-1],"split_conditions":[2.628105E1,2.3741035E1,5E1,-2.8946018E-1,3.6134797E-1,-3.6634517E-1,3.1601095E1,1.938488E-1,-2.144989E-1],"split_indices":[0,0,2,0,0,0,0,0,0],"split_type":[0,0,0,0,0,0,0,0,0],"sum_hessian":[7E0,2E0,5E0,1E0,1E0,3E0,2E0,1E0,1E0],"tree_param":{"num_deleted":"0","num_feature":"4","num_nodes":"9","size_leaf_vector":"1"}},{"base_weights":[5.2782863E-1,-3.6013108E-1,3.7654746E0,-2.822237E-1,6.274545E0,2.1206334E0,3.9106712E-1,3.523142E-1,-1.9326667E-1],"categories":[],"categories_nodes":[],"categories_segments":[],"categories_sizes":[],"default_left":[0,0,0,0,0,0,0,0,0],"id":19,"left_children":[1,-1,3,-1,5,7,-1,-1,-1],"loss_changes":[2.5237743E2,0E0,2.0068808E2,0E0,2.1965363E1,1.1569058E2,0E0,0E0,0E0],"parents":[2147483647,0,0,2,2,4,4,5,5],"right_children":[2,-1,4,-1,6,8,-1,-1,-1],"split_conditions":[7.7E1,-3.6013108E-1,2.3741035E1,-2.822237E-1,5E1,2.628105E1,3.9106712E-1,3.523142E-1,-1.9326667E-1],"split_indices":[3,0,0,0,2,0,0,0,0],"split_type":[0,0,0,0,0,0,0,0,0],"sum_hessian":[8E0,2E0,6E0,1E0,5E0,2E0,3E0,1E0,1E0],"tree_param":{"num_deleted":"0","num_feature":"4","num_nodes":"9","size_leaf_vector":"1"}},{"base_weights":[-2.6215363E-1,-3.1955833E0,3.8238552E-1,9.11176E-1,-4.716366E0,-2.7516803E-1,3.4350625E-1,-3.4327385E-1,-2.7876282E-1,1.7922592E-1,-2.0013313E-1],"categories":[],"categories_nodes":[],"categories_segments":[],"categories_sizes":[],"default_left":[0,0,0,0,0,0,0,0,0,0,0],"id":20,"left_children":[1,3,-1,5,7,-1,-1,-1,9,-1,-1],"loss_changes":[2.5646918E2,5.4261345E1,0E0,1.5248047E2,5.5307556E1,0E0,0E0,0E0,5.7507034E1,0E0,0E0],"parents":[2147483647,0,0,1,1,3,3,4,4,8,8],"right_children":[2,4,-1,6,8,-1,-1,-1,10,-1,-1],"split_conditions":[3.7932095E1,2.628105E1,3.8238552E-1,2.3741035E1,5E1,-2.7516803E-1,3.4350625E-1,-3.4327385E-1,3.1601095E1,1.7922592E-1,-2.0013313E-1],"split_indices":[0,0,0,0,2,0,0,0,0,0,0],"split_type":[0,0,0,0,0,0,0,0,0,0,0],"sum_hessian":[9E0,7E0,2E0,2E0,5E0,1E0,1E0,3E0,2E0,1E0,1E0],"tree_param":{"num_deleted":"0","num_feature":"4","num_nodes":"11","size_leaf_vector":"1"}},{"base_weights":[-7.201929E-1,-3.380394E-1,4.256322E0,3.3977586E-1,2.9835257E-1,-1.7985307E-1,2.022295E-1],"categories":[],"categories_nodes":[],"categories_segments":[],"categories_sizes":[],"default_left":[0,0,0,0,0,0,0],"id":21,"left_children":[1,-1,3,-1,5,-1,-1],"loss_changes":[2.6926498E2,0E0,4.8222824E1,0E0,5.8328068E1,0E0,0E0],"parents":[2147483647,0,0,2,2,4,4],"right_children":[2,-1,4,-1,6,-1,-1],"split_conditions":[8.9E1,-3.380394E-1,3.1601095E1,3.3977586E-1,3.248442E1,-1.7985307E-1,2.022295E-1],"split_indices":[3,0,0,0,0,0,0],"split_type":[0,0,0,0,0,0,0],"sum_hessian":[7E0,3E0,4E0,2E0,2E0,1E0,1E0],"tree_param":{"num_deleted":"0","num_feature":"4","num_nodes":"7","size_leaf_vector":"1"}},{"base_weights":[-4.3621683E-1,-4.210605E0,3.6289826E-1,-1.473765E0,-2.605292E-1,-2.767832E-1,1.6625081E-1],"categories":[],"categories_nodes":[],"categories_segments":[],"categories_sizes":[],"default_left":[0,0,0,0,0,0,0],"id":22,"left_children":[1,3,-1,5,-1,-1,-1],"loss_changes":[2.6288705E2,8.741524E0,0E0,7.688265E1,0E0,0E0,0E0],"parents":[2147483647,0,0,1,1,3,3],"right_children":[2,4,-1,6,-1,-1,-1],"split_conditions":[3.7932095E1,3.1601095E1,3.6289826E-1,2.3741035E1,-2.605292E-1,-2.767832E-1,1.6625081E-1],"split_indices":[0,0,0,0,0,0,0],"split_type":[0,0,0,0,0,0,0],"sum_hessian":[7E0,5E0,2E0,2E0,3E0,1E0,1E0],"tree_param":{"num_deleted":"0","num_feature":"4","num_nodes":"7","size_leaf_vector":"1"}},{"base_weights":[-4.1542673E-1,-4.0619183E0,3.508016E-1,-1.4369202E0,-2.5075936E-1,-2.6986352E-1,1.620945E-1],"categories":[],"categories_nodes":[],"categories_segments":[],"categories_sizes":[],"default_left":[0,0,0,0,0,0,0],"id":23,"left_children":[1,3,-1,5,-1,-1,-1],"loss_changes":[2.4528856E2,7.807556E0,0E0,7.308653E1,0E0,0E0,0E0],"parents":[2147483647,0,0,1,1,3,3],"right_children":[2,4,-1,6,-1,-1,-1],"split_conditions":[3.7932095E1,3.1601095E1,3.508016E-1,2.3741035E1,-2.5075936E-1,-2.6986352E-1,1.620945E-1],"split_indices":[0,0,0,0,0,0,0],"split_type":[0,0,0,0,0,0,0],"sum_hessian":[7E0,5E0,2E0,2E0,3E0,1E0,1E0],"tree_param":{"num_deleted":"0","num_feature":"4","num_nodes":"7","size_leaf_vector":"1"}},{"base_weights":[4.8222065E-2,-1.8267816E0,3.2933122E-1,3.1821558E-1,-4.252682E0,-3.1102395E-1,-2.1139272E-1,1.5804215E-1,-1.738966E-1],"categories":[],"categories_nodes":[],"categories_segments":[],"categories_sizes":[],"default_left":[0,0,0,0,0,0,0,0,0],"id":24,"left_children":[1,3,-1,-1,5,-1,7,-1,-1],"loss_changes":[1.1010855E2,1.6616083E2,0E0,0E0,4.639966E1,0E0,4.4039818E1,0E0,0E0],"parents":[2147483647,0,0,1,1,4,4,6,6],"right_children":[2,4,-1,-1,6,-1,8,-1,-1],"split_conditions":[3.7932095E1,2.628105E1,3.2933122E-1,3.1821558E-1,5E1,-3.1102395E-1,3.1601095E1,1.5804215E-1,-1.738966E-1],"split_indices":[0,0,0,0,2,0,0,0,0],"split_type":[0,0,0,0,0,0,0,0,0],"sum_hessian":[7E0,6E0,1E0,1E0,5E0,3E0,2E0,1E0,1E0],"tree_param":{"num_deleted":"0","num_feature":"4","num_nodes":"9","size_leaf_vector":"1"}},{"base_weights":[9.8960876E-1,-1.5401938E0,3.281306E-1,1.9327908E0,-2.314065E-1,-2.710722E-1,3.0956754E-1],"categories":[],"categories_nodes":[],"categories_segments":[],"categories_sizes":[],"default_left":[0,0,0,0,0,0,0],"id":25,"left_children":[1,3,-1,5,-1,-1,-1],"loss_changes":[1.3699507E2,8.4015686E1,0E0,1.5883984E2,0E0,0E0,0E0],"parents":[2147483647,0,0,1,1,3,3],"right_children":[2,4,-1,6,-1,-1,-1],"split_conditions":[3.7932095E1,3.1601095E1,3.281306E-1,2.3741035E1,-2.314065E-1,-2.710722E-1,3.0956754E-1],"split_indices":[0,0,0,0,0,0,0],"split_type":[0,0,0,0,0,0,0],"sum_hessian":[8E0,6E0,2E0,3E0,3E0,1E0,2E0],"tree_param":{"num_deleted":"0","num_feature":"4","num_nodes":"7","size_leaf_vector":"1"}},{"base_weights":[1.293878E0,-2.8170757E0,3.1719285E-1,-2.642954E-1,-2.3216248E-1,1.4635181E-1,-1.63764E-1],"categories":[],"categories_nodes":[],"categories_segments":[],"categories_sizes":[],"default_left":[0,0,0,0,0,0,0],"id":26,"left_children":[1,3,-1,-1,5,-1,-1],"loss_changes":[1.424325E2,2.4299677E1,0E0,0E0,3.8428303E1,0E0,0E0],"parents":[2147483647,0,0,1,1,4,4],"right_children":[2,4,-1,-1,6,-1,-1],"split_conditions":[3.7932095E1,2.3741035E1,3.1719285E-1,-2.642954E-1,3.1601095E1,1.4635181E-1,-1.63764E-1],"split_indices":[0,0,0,0,0,0,0],"split_type":[0,0,0,0,0,0,0],"sum_hessian":[5E0,3E0,2E0,1E0,2E0,1E0,1E0],"tree_param":{"num_deleted":"0","num_feature":"4","num_nodes":"7","size_leaf_vector":"1"}},{"base_weights":[-2.8308158E0,5.4898834E-1,-4.0489154E0,-2.5768796E-1,2.9886207E-1,-2.9518017E-1,-2.2635905E-1,1.4269295E-1,-1.5966988E-1],"categories":[],"categories_nodes":[],"categories_segments":[],"categories_sizes":[],"default_left":[0,0,0,0,0,0,0,0,0],"id":27,"left_children":[1,3,5,-1,-1,-1,7,-1,-1],"loss_changes":[3.5158302E1,1.23673134E2,4.1201576E1,0E0,0E0,0E0,3.653088E1,0E0,0E0],"parents":[2147483647,0,0,1,1,2,2,6,6],"right_children":[2,4,6,-1,-1,-1,8,-1,-1],"split_conditions":[2.628105E1,2.3741035E1,5E1,-2.5768796E-1,2.9886207E-1,-2.9518017E-1,3.1601095E1,1.4269295E-1,-1.5966988E-1],"split_indices":[0,0,2,0,0,0,0,0,0],"split_type":[0,0,0,0,0,0,0,0,0],"sum_hessian":[7E0,2E0,5E0,1E0,1E0,3E0,2E0,1E0,1E0],"tree_param":{"num_deleted":"0","num_feature":"4","num_nodes":"9","size_leaf_vector":"1"}},{"base_weights":[-3.068653E-1,-2.9318005E-1,2.91225E0,-2.512457E-1,5.072596E0,2.0513432E0,3.0351934E-1,2.9139063E-1,-1.3753986E-1],"categories":[],"categories_nodes":[],"categories_segments":[],"categories_sizes":[],"default_left":[0,0,0,0,0,0,0,0,0],"id":28,"left_children":[1,-1,3,-1,5,7,-1,-1,-1],"loss_changes":[1.95954E2,0E0,1.455185E2,0E0,5.635025E0,7.043654E1,0E0,0E0,0E0],"parents":[2147483647,0,0,2,2,4,4,5,5],"right_children":[2,-1,4,-1,6,8,-1,-1,-1],"split_conditions":[8.9E1,-2.9318005E-1,2.3741035E1,-2.512457E-1,5E1,2.628105E1,3.0351934E-1,2.9139063E-1,-1.3753986E-1],"split_indices":[3,0,0,0,2,0,0,0,0],"split_type":[0,0,0,0,0,0,0,0,0],"sum_hessian":[9E0,3E0,6E0,1E0,5E0,2E0,3E0,1E0,1E0],"tree_param":{"num_deleted":"0","num_feature":"4","num_nodes":"9","size_leaf_vector":"1"}},{"base_weights":[-3.0022812E-1,-2.8218585E-1,2.7960837E0,-2.449646E-1,4.895195E0,2.000061E0,2.9213735E-1,2.8410587E-1,-1.341013E-1],"categories":[],"categories_nodes":[],"categories_segments":[],"categories_sizes":[],"default_left":[0,0,0,0,0,0,0,0,0],"id":29,"left_children":[1,-1,3,-1,5,7,-1,-1,-1],"loss_changes":[1.8123138E2,0E0,1.3705713E2,0E0,4.77388E0,6.695871E1,0E0,0E0,0E0],"parents":[2147483647,0,0,2,2,4,4,5,5],"right_children":[2,-1,4,-1,6,8,-1,-1,-1],"split_conditions":[8.9E1,-2.8218585E-1,2.3741035E1,-2.449646E-1,5E1,2.628105E1,2.9213735E-1,2.8410587E-1,-1.341013E-1],"split_indices":[3,0,0,0,2,0,0,0,0],"split_type":[0,0,0,0,0,0,0,0,0],"sum_hessian":[9E0,3E0,6E0,1E0,5E0,2E0,3E0,1E0,1E0],"tree_param":{"num_deleted":"0","num_feature":"4","num_nodes":"9","size_leaf_vector":"1"}},{"base_weights":[-1.5574785E0,-4.5060735E0,2.920868E-1,-3.5595468E-1,-2.037047E0,1.242342E-1,-1.8943253E-1],"categories":[],"categories_nodes":[],"categories_segments":[],"categories_sizes":[],"default_left":[0,0,0,0,0,0,0],"id":30,"left_children":[1,3,-1,-1,5,-1,-1],"loss_changes":[2.2267886E2,3.0659393E1,0E0,0E0,4.9015003E1,0E0,0E0],"parents":[2147483647,0,0,1,1,4,4],"right_children":[2,4,-1,-1,6,-1,-1],"split_conditions":[3.7932095E1,2.6997694E1,2.920868E-1,-3.5595468E-1,3.1601095E1,1.242342E-1,-1.8943253E-1],"split_indices":[0,0,0,0,0,0,0],"split_type":[0,0,0,0,0,0,0],"sum_hessian":[8E0,6E0,2E0,2E0,4E0,1E0,3E0],"tree_param":{"num_deleted":"0","num_feature":"4","num_nodes":"7","size_leaf_vector":"1"}},{"base_weights":[1.0486993E0,-1.071821E0,2.8235066E-1,1.7708893E0,-1.823288E-1,-2.2994156E-1,2.7135366E-1],"categories":[],"categories_nodes":[],"categories_segments":[],"categories_sizes":[],"default_left":[0,0,0,0,0,0,0],"id":31,"left_children":[1,3,-1,5,-1,-1,-1],"loss_changes":[9.380995E1,5.7692657E1,0E0,1.1811367E2,0E0,0E0,0E0],"parents":[2147483647,0,0,1,1,3,3],"right_children":[2,4,-1,6,-1,-1,-1],"split_conditions":[3.7932095E1,3.1601095E1,2.8235066E-1,2.3741035E1,-1.823288E-1,-2.2994156E-1,2.7135366E-1],"split_indices":[0,0,0,0,0,0,0],"split_type":[0,0,0,0,0,0,0],"sum_hessian":[8E0,6E0,2E0,3E0,3E0,1E0,2E0],"tree_param":{"num_deleted":"0","num_feature":"4","num_nodes":"7","size_leaf_vector":"1"}},{"base_weights":[-2.6112518E-1,-2.3734493E0,2.7293906E-1,7.3233795E-1,-3.5307682E0,-2.24193E-1,2.7911836E-1,-2.5597978E-1,-2.3540878E-1,1.1434441E-1,-1.3200007E-1],"categories":[],"categories_nodes":[],"categories_segments":[],"categories_sizes":[],"default_left":[0,0,0,0,0,0,0,0,0,0,0],"id":32,"left_children":[1,3,-1,5,7,-1,-1,-1,9,-1,-1],"loss_changes":[1.337791E2,3.1340797E1,0E0,1.0092669E2,3.020935E1,0E0,0E0,0E0,2.4232677E1,0E0,0E0],"parents":[2147483647,0,0,1,1,3,3,4,4,8,8],"right_children":[2,4,-1,6,8,-1,-1,-1,10,-1,-1],"split_conditions":[3.7932095E1,2.628105E1,2.7293906E-1,2.3741035E1,5E1,-2.24193E-1,2.7911836E-1,-2.5597978E-1,3.1601095E1,1.1434441E-1,-1.3200007E-1],"split_indices":[0,0,0,0,2,0,0,0,0,0,0],"split_type":[0,0,0,0,0,0,0,0,0,0,0],"sum_hessian":[9E0,7E0,2E0,2E0,5E0,1E0,1E0,3E0,2E0,1E0,1E0],"tree_param":{"num_deleted":"0","num_feature":"4","num_nodes":"11","size_leaf_vector":"1"}},{"base_weights":[-2.4264641E-1,-2.2821155E0,2.63841E-1,7.140274E-1,-3.3998344E0,-2.1858826E-1,2.7214032E-1,-2.4638048E-1,-2.295227E-1,1.1148586E-1,-1.2870006E-1],"categories":[],"categories_nodes":[],"categories_segments":[],"categories_sizes":[],"default_left":[0,0,0,0,0,0,0,0,0,0,0],"id":33,"left_children":[1,3,-1,5,7,-1,-1,-1,9,-1,-1],"loss_changes":[1.2461012E2,2.9218334E1,0E0,9.5943436E1,2.7930138E1,0E0,0E0,0E0,2.3036201E1,0E0,0E0],"parents":[2147483647,0,0,1,1,3,3,4,4,8,8],"right_children":[2,4,-1,6,8,-1,-1,-1,10,-1,-1],"split_conditions":[3.7932095E1,2.628105E1,2.63841E-1,2.3741035E1,5E1,-2.1858826E-1,2.7214032E-1,-2.4638048E-1,3.1601095E1,1.1148586E-1,-1.2870006E-1],"split_indices":[0,0,0,0,2,0,0,0,0,0,0],"split_type":[0,0,0,0,0,0,0,0,0,0,0],"sum_hessian":[9E0,7E0,2E0,2E0,5E0,1E0,1E0,3E0,2E0,1E0,1E0],"tree_param":{"num_deleted":"0","num_feature":"4","num_nodes":"11","size_leaf_vector":"1"}},{"base_weights":[-9.089813E-1,-2.1312352E-1,9.9500847E-1,-1.2548256E-1,1.4998893E-1],"categories":[],"categories_nodes":[],"categories_segments":[],"categories_sizes":[],"default_left":[0,0,0,0,0],"id":34,"left_children":[1,-1,3,-1,-1],"loss_changes":[3.6166237E1,0E0,3.563255E1,0E0,0E0],"parents":[2147483647,0,0,2,2],"right_children":[2,-1,4,-1,-1],"split_conditions":[2.3741035E1,-2.1312352E-1,7.7E1,-1.2548256E-1,1.4998893E-1],"split_indices":[0,0,3,0,0],"split_type":[0,0,0,0,0],"sum_hessian":[4E0,1E0,3E0,1E0,2E0],"tree_param":{"num_deleted":"0","num_feature":"4","num_nodes":"5","size_leaf_vector":"1"}},{"base_weights":[-4.5497704E-1,-2.6641732E-1,2.057537E0,-2.0779534E-1,2.0657037E-1],"categories":[],"categories_nodes":[],"categories_segments":[],"categories_sizes":[],"default_left":[0,0,0,0,0],"id":35,"left_children":[1,-1,3,-1,-1],"loss_changes":[1.0891853E2,0E0,9.4485E1,0E0,0E0],"parents":[2147483647,0,0,2,2],"right_children":[2,-1,4,-1,-1],"split_conditions":[7.7E1,-2.6641732E-1,2.3741035E1,-2.0779534E-1,2.0657037E-1],"split_indices":[3,0,0,0,0],"split_type":[0,0,0,0,0],"sum_hessian":[7E0,2E0,5E0,1E0,4E0],"tree_param":{"num_deleted":"0","num_feature":"4","num_nodes":"5","size_leaf_vector":"1"}},{"base_weights":[-8.312005E-1,-2.400941E-1,1.9544538E0,-2.0260048E-1,1.9830742E-1],"categories":[],"categories_nodes":[],"categories_segments":[],"categories_sizes":[],"default_left":[0,0,0,0,0],"id":36,"left_children":[1,-1,3,-1,-1],"loss_changes":[1.0893356E2,0E0,8.856989E1,0E0,0E0],"parents":[2147483647,0,0,2,2],"right_children":[2,-1,4,-1,-1],"split_conditions":[8.9E1,-2.400941E-1,2.3741035E1,-2.0260048E-1,1.9830742E-1],"split_indices":[3,0,0,0,0],"split_type":[0,0,0,0,0],"sum_hessian":[8E0,3E0,5E0,1E0,4E0],"tree_param":{"num_deleted":"0","num_feature":"4","num_nodes":"5","size_leaf_vector":"1"}},{"base_weights":[4.0419197E-1,-9.8042625E-1,2.52413E-1,1.4875641E0,-1.601655E-1,-1.9753551E-1,2.3086129E-1],"categories":[],"categories_nodes":[],"categories_segments":[],"categories_sizes":[],"default_left":[0,0,0,0,0,0,0],"id":37,"left_children":[1,3,-1,5,-1,-1,-1],"loss_changes":[5.6391533E1,4.316752E1,0E0,8.632115E1,0E0,0E0,0E0],"parents":[2147483647,0,0,1,1,3,3],"right_children":[2,4,-1,6,-1,-1,-1],"split_conditions":[3.7932095E1,3.1601095E1,2.52413E-1,2.3741035E1,-1.601655E-1,-1.9753551E-1,2.3086129E-1],"split_indices":[0,0,0,0,0,0,0],"split_type":[0,0,0,0,0,0,0],"sum_hessian":[7E0,6E0,1E0,3E0,3E0,1E0,2E0],"tree_param":{"num_deleted":"0","num_feature":"4","num_nodes":"7","size_leaf_vector":"1"}},{"base_weights":[-1.5131259E0,-2.1827803E0,9.6102715E-2,7.0795184E-1,-3.2643497E0,-1.925972E-1,2.456936E-1,-2.3651461E-1,-2.216428E-1,8.905544E-2,-1.05678655E-1],"categories":[],"categories_nodes":[],"categories_segments":[],"categories_sizes":[],"default_left":[0,0,0,0,0,0,0,0,0,0,0],"id":38,"left_children":[1,3,-1,5,7,-1,-1,-1,9,-1,-1],"loss_changes":[2.489887E1,2.7323223E1,0E0,7.646363E1,2.5714169E1,0E0,0E0,0E0,1.5131702E1,0E0,0E0],"parents":[2147483647,0,0,1,1,3,3,4,4,8,8],"right_children":[2,4,-1,6,8,-1,-1,-1,10,-1,-1],"split_conditions":[3.7932095E1,2.628105E1,9.6102715E-2,2.3741035E1,5E1,-1.925972E-1,2.456936E-1,-2.3651461E-1,3.1601095E1,8.905544E-2,-1.05678655E-1],"split_indices":[0,0,0,0,2,0,0,0,0,0,0],"split_type":[0,0,0,0,0,0,0,0,0,0,0],"sum_hessian":[8E0,7E0,1E0,2E0,5E0,1E0,1E0,3E0,2E0,1E0,1E0],"tree_param":{"num_deleted":"0","num_feature":"4","num_nodes":"11","size_leaf_vector":"1"}},{"base_weights":[1.3565105E-1,-2.2273842E-1,3.173322E0,-1.8778229E-1,2.6551223E-1],"categories":[],"categories_nodes":[],"categories_segments":[],"categories_sizes":[],"default_left":[0,0,0,0,0],"id":39,"left_children":[1,-1,3,-1,-1],"loss_changes":[1.3963406E2,0E0,1.0878342E2,0E0,0E0],"parents":[2147483647,0,0,2,2],"right_children":[2,-1,4,-1,-1],"split_conditions":[8.9E1,-2.2273842E-1,2.3741035E1,-1.8778229E-1,2.6551223E-1],"split_indices":[3,0,0,0,0],"split_type":[0,0,0,0,0],"sum_hessian":[8E0,3E0,5E0,1E0,4E0],"tree_param":{"num_deleted":"0","num_feature":"4","num_nodes":"5","size_leaf_vector":"1"}},{"base_weights":[-2.0704684E0,-3.7208922E0,2.3706245E-1,-2.946637E-1,-1.6732849E0,8.019123E-2,-1.4467593E-1],"categories":[],"categories_nodes":[],"categories_segments":[],"categories_sizes":[],"default_left":[0,0,0,0,0,0,0],"id":40,"left_children":[1,3,-1,-1,5,-1,-1],"loss_changes":[1.07579445E2,2.1276161E1,0E0,0E0,2.4634892E1,0E0,0E0],"parents":[2147483647,0,0,1,1,4,4],"right_children":[2,4,-1,-1,6,-1,-1],"split_conditions":[3.7932095E1,2.6997694E1,2.3706245E-1,-2.946637E-1,3.1601095E1,8.019123E-2,-1.4467593E-1],"split_indices":[0,0,0,0,0,0,0],"split_type":[0,0,0,0,0,0,0],"sum_hessian":[7E0,6E0,1E0,2E0,4E0,1E0,3E0],"tree_param":{"num_deleted":"0","num_feature":"4","num_nodes":"7","size_leaf_vector":"1"}},{"base_weights":[7.845154E-1,-7.7574813E-1,2.0818126E-1,1.4274521E0,-1.3925056E-1,-1.7572117E-1,2.1231091E-1],"categories":[],"categories_nodes":[],"categories_segments":[],"categories_sizes":[],"default_left":[0,0,0,0,0,0,0],"id":41,"left_children":[1,3,-1,5,-1,-1,-1],"loss_changes":[5.0680637E1,3.496313E1,0E0,7.064298E1,0E0,0E0,0E0],"parents":[2147483647,0,0,1,1,3,3],"right_children":[2,4,-1,6,-1,-1,-1],"split_conditions":[3.7932095E1,3.1601095E1,2.0818126E-1,2.3741035E1,-1.3925056E-1,-1.7572117E-1,2.1231091E-1],"split_indices":[0,0,0,0,0,0,0],"split_type":[0,0,0,0,0,0,0],"sum_hessian":[8E0,6E0,2E0,3E0,3E0,1E0,2E0],"tree_param":{"num_deleted":"0","num_feature":"4","num_nodes":"7","size_leaf_vector":"1"}},{"base_weights":[-1.2357755E0,-1.8462083E0,7.593136E-2,8.4858704E-1,-3.093844E0,-1.7132817E-1,2.349722E-1,-2.4615943E-1,-2.3321788E-1,7.287865E-2,-9.036999E-2],"categories":[],"categories_nodes":[],"categories_segments":[],"categories_sizes":[],"default_left":[0,0,0,0,0,0,0,0,0,0,0],"id":42,"left_children":[1,3,-1,5,7,-1,-1,-1,9,-1,-1],"loss_changes":[1.6254723E1,2.6160255E1,0E0,6.549191E1,2.5017178E1,0E0,0E0,0E0,1.0619253E1,0E0,0E0],"parents":[2147483647,0,0,1,1,3,3,4,4,8,8],"right_children":[2,4,-1,6,8,-1,-1,-1,10,-1,-1],"split_conditions":[3.7932095E1,2.628105E1,7.593136E-2,2.3741035E1,5E1,-1.7132817E-1,2.349722E-1,-2.4615943E-1,3.1601095E1,7.287865E-2,-9.036999E-2],"split_indices":[0,0,0,0,2,0,0,0,0,0,0],"split_type":[0,0,0,0,0,0,0,0,0,0,0],"sum_hessian":[7E0,6E0,1E0,2E0,4E0,1E0,1E0,2E0,2E0,1E0,1E0],"tree_param":{"num_deleted":"0","num_feature":"4","num_nodes":"11","size_leaf_vector":"1"}},{"base_weights":[-1.8807006E0,-2.0167401E-1,6.4022444E-2],"categories":[],"categories_nodes":[],"categories_segments":[],"categories_sizes":[],"default_left":[0,0,0],"id":43,"left_children":[1,-1,-1],"loss_changes":[5.960672E1,0E0,0E0],"parents":[2147483647,0,0],"right_children":[2,-1,-1],"split_conditions":[9.9E1,-2.0167401E-1,6.4022444E-2],"split_indices":[3,0,0],"split_type":[0,0,0],"sum_hessian":[7E0,4E0,3E0],"tree_param":{"num_deleted":"0","num_feature":"4","num_nodes":"3","size_leaf_vector":"1"}},{"base_weights":[-5.9848166E-1,-1.9360699E-1,1.8216057E-1],"categories":[],"categories_nodes":[],"categories_segments":[],"categories_sizes":[],"default_left":[0,0,0],"id":44,"left_children":[1,-1,-1],"loss_changes":[1.25193855E2,0E0,0E0],"parents":[2147483647,0,0],"right_children":[2,-1,-1],"split_conditions":[9.9E1,-1.9360699E-1,1.8216057E-1],"split_indices":[3,0,0],"split_type":[0,0,0],"sum_hessian":[7E0,4E0,3E0],"tree_param":{"num_deleted":"0","num_feature":"4","num_nodes":"3","size_leaf_vector":"1"}},{"base_weights":[-1.7753792E0,-3.274025E0,2.1787854E-1,-2.7600843E-1,-1.271534E0,6.490212E-2,-1.1192193E-1],"categories":[],"categories_nodes":[],"categories_segments":[],"categories_sizes":[],"default_left":[0,0,0,0,0,0,0],"id":45,"left_children":[1,3,-1,-1,5,-1,-1],"loss_changes":[8.7795746E1,2.4466095E1,0E0,0E0,1.5328263E1,0E0,0E0],"parents":[2147483647,0,0,1,1,4,4],"right_children":[2,4,-1,-1,6,-1,-1],"split_conditions":[3.7932095E1,2.6997694E1,2.1787854E-1,-2.7600843E-1,3.1601095E1,6.490212E-2,-1.1192193E-1],"split_indices":[0,0,0,0,0,0,0],"split_type":[0,0,0,0,0,0,0],"sum_hessian":[7E0,6E0,1E0,2E0,4E0,1E0,3E0],"tree_param":{"num_deleted":"0","num_feature":"4","num_nodes":"7","size_leaf_vector":"1"}},{"base_weights":[-5.5609894E-1,-2.5738857E0,1.8324204E-1,-3.739318E0,-1.6201401E-1,-2.1831253E-1,-4.6463013E-2,6.327953E-2,-7.543059E-2],"categories":[],"categories_nodes":[],"categories_segments":[],"categories_sizes":[],"default_left":[0,0,0,0,0,0,0,0,0],"id":46,"left_children":[1,3,-1,5,7,-1,-1,-1,-1],"loss_changes":[7.756853E1,1.6259415E1,0E0,2.9894867E0,7.676512E0,0E0,0E0,0E0,0E0],"parents":[2147483647,0,0,1,1,3,3,4,4],"right_children":[2,4,-1,6,8,-1,-1,-1,-1],"split_conditions":[3.7932095E1,5E1,1.8324204E-1,3.248442E1,3.1601095E1,-2.1831253E-1,-4.6463013E-2,6.327953E-2,-7.543059E-2],"split_indices":[0,2,0,0,0,0,0,0,0],"split_type":[0,0,0,0,0,0,0,0,0],"sum_hessian":[7E0,5E0,2E0,3E0,2E0,2E0,1E0,1E0,1E0],"tree_param":{"num_deleted":"0","num_feature":"4","num_nodes":"9","size_leaf_vector":"1"}},{"base_weights":[2.824618E-1,-3.473012E0,2.739034E0,-2.0133317E-1,-4.5301437E-2,-1.678814E-1,4.629892E0,2.6044303E-1,5.7850458E-2],"categories":[],"categories_nodes":[],"categories_segments":[],"categories_sizes":[],"default_left":[0,0,0,0,0,0,0,0,0],"id":47,"left_children":[1,3,5,-1,-1,-1,7,-1,-1],"loss_changes":[9.254303E1,2.036583E0,8.471298E1,0E0,0E0,0E0,4.0267563E0,0E0,0E0],"parents":[2147483647,0,0,1,1,2,2,6,6],"right_children":[2,4,6,-1,-1,-1,8,-1,-1],"split_conditions":[8.9E1,7.7E1,2.3741035E1,-2.0133317E-1,-4.5301437E-2,-1.678814E-1,4.1609924E1,2.6044303E-1,5.7850458E-2],"split_indices":[3,3,0,0,0,0,0,0,0],"split_type":[0,0,0,0,0,0,0,0,0],"sum_hessian":[8E0,3E0,5E0,2E0,1E0,1E0,4E0,3E0,1E0],"tree_param":{"num_deleted":"0","num_feature":"4","num_nodes":"9","size_leaf_vector":"1"}},{"base_weights":[8.301464E-1,-1.6368428E-1,1.752336E0,-7.512023E-2,3.0876503E0,2.448269E-1,1.7465652E0,-9.460926E-2,1.5646496E-1],"categories":[],"categories_nodes":[],"categories_segments":[],"categories_sizes":[],"default_left":[0,0,0,0,0,0,0,0,0],"id":48,"left_children":[1,-1,3,-1,5,-1,7,-1,-1],"loss_changes":[3.97972E1,0E0,3.9407715E1,0E0,6.003105E0,0E0,3.107833E1,0E0,0E0],"parents":[2147483647,0,0,2,2,4,4,6,6],"right_children":[2,-1,4,-1,6,-1,8,-1,-1],"split_conditions":[2.3741035E1,-1.6368428E-1,8.9E1,-7.512023E-2,2.628105E1,2.448269E-1,5E1,-9.460926E-2,1.5646496E-1],"split_indices":[0,0,3,0,0,0,2,0,0],"split_type":[0,0,0,0,0,0,0,0,0],"sum_hessian":[8E0,1E0,7E0,2E0,5E0,1E0,4E0,1E0,3E0],"tree_param":{"num_deleted":"0","num_feature":"4","num_nodes":"9","size_leaf_vector":"1"}},{"base_weights":[6.332412E-1,-1.5959226E-1,1.6356599E0,-7.2616264E-2,3.161319E0,2.3870622E-1,1.5645866E0,-9.224396E-2,3.316035E0,5.1274873E-2,1.9742775E-1],"categories":[],"categories_nodes":[],"categories_segments":[],"categories_sizes":[],"default_left":[0,0,0,0,0,0,0,0,0,0,0],"id":49,"left_children":[1,-1,3,-1,5,-1,7,-1,9,-1,-1],"loss_changes":[3.5895477E1,0E0,3.7569748E1,0E0,5.406559E0,0E0,3.0003696E1,0E0,2.9719925E-1,0E0,0E0],"parents":[2147483647,0,0,2,2,4,4,6,6,8,8],"right_children":[2,-1,4,-1,6,-1,8,-1,10,-1,-1],"split_conditions":[2.3741035E1,-1.5959226E-1,8.9E1,-7.2616264E-2,2.628105E1,2.3870622E-1,5E1,-9.224396E-2,3.1601095E1,5.1274873E-2,1.9742775E-1],"split_indices":[0,0,3,0,0,0,2,0,0,0,0],"split_type":[0,0,0,0,0,0,0,0,0,0,0],"sum_hessian":[7E0,1E0,6E0,2E0,4E0,1E0,3E0,1E0,2E0,1E0,1E0],"tree_param":{"num_deleted":"0","num_feature":"4","num_nodes":"11","size_leaf_vector":"1"}},{"base_weights":[-1.9112663E-1,-3.2502184E0,1.5842296E0,-2.1972828E-1,-7.0195705E-2,-1.5560246E-1,2.8856175E0,2.327385E-1,1.6008332E0,-8.9937784E-2,1.4502096E-1],"categories":[],"categories_nodes":[],"categories_segments":[],"categories_sizes":[],"default_left":[0,0,0,0,0,0,0,0,0,0,0],"id":50,"left_children":[1,3,5,-1,-1,-1,7,-1,9,-1,-1],"loss_changes":[5.945887E1,2.2816582E0,5.1761955E1,0E0,0E0,0E0,6.186367E0,0E0,2.7307436E1,0E0,0E0],"parents":[2147483647,0,0,1,1,2,2,6,6,8,8],"right_children":[2,4,6,-1,-1,-1,8,-1,10,-1,-1],"split_conditions":[8.9E1,2.6997694E1,2.3741035E1,-2.1972828E-1,-7.0195705E-2,-1.5560246E-1,2.628105E1,2.327385E-1,9.9E1,-8.9937784E-2,1.4502096E-1],"split_indices":[3,0,0,0,0,0,0,0,3,0,0],"split_type":[0,0,0,0,0,0,0,0,0,0,0],"sum_hessian":[9E0,3E0,6E0,1E0,2E0,1E0,5E0,1E0,4E0,1E0,3E0],"tree_param":{"num_deleted":"0","num_feature":"4","num_nodes":"11","size_leaf_vector":"1"}},{"base_weights":[1.704623E-1,-3.1601896E0,2.3624866E0,-2.1423511E-1,-6.78559E-2,-1.5171242E-1,4.048683E0,2.31077E-1,4.393139E-2],"categories":[],"categories_nodes":[],"categories_segments":[],"categories_sizes":[],"default_left":[0,0,0,0,0,0,0,0,0],"id":51,"left_children":[1,3,5,-1,-1,-1,7,-1,-1],"loss_changes":[7.317374E1,2.2954597E0,6.688446E1,0E0,0E0,0E0,5.0193253E0,0E0,0E0],"parents":[2147483647,0,0,1,1,2,2,6,6],"right_children":[2,4,6,-1,-1,-1,8,-1,-1],"split_conditions":[8.9E1,2.6997694E1,2.3741035E1,-2.1423511E-1,-6.78559E-2,-1.5171242E-1,4.1609924E1,2.31077E-1,4.393139E-2],"split_indices":[3,0,0,0,0,0,0,0,0],"split_type":[0,0,0,0,0,0,0,0,0],"sum_hessian":[8E0,3E0,5E0,1E0,2E0,1E0,4E0,3E0,1E0],"tree_param":{"num_deleted":"0","num_feature":"4","num_nodes":"9","size_leaf_vector":"1"}},{"base_weights":[-4.808507E-1,-3.0727034E0,8.4440075E-2,-2.0887928E-1,-6.559404E-2],"categories":[],"categories_nodes":[],"categories_segments":[],"categories_sizes":[],"default_left":[0,0,0,0,0],"id":52,"left_children":[1,3,-1,-1,-1],"loss_changes":[5.017654E1,2.3015099E0,0E0,0E0,0E0],"parents":[2147483647,0,0,1,1],"right_children":[2,4,-1,-1,-1],"split_conditions":[8.9E1,7.2E1,8.4440075E-2,-2.0887928E-1,-6.559404E-2],"split_indices":[3,3,0,0,0],"split_type":[0,0,0,0,0],"sum_hessian":[7E0,3E0,4E0,1E0,2E0],"tree_param":{"num_deleted":"0","num_feature":"4","num_nodes":"5","size_leaf_vector":"1"}},{"base_weights":[2.2891903E0,-6.3407585E-2,2.1924496E-1],"categories":[],"categories_nodes":[],"categories_segments":[],"categories_sizes":[],"default_left":[0,0,0],"id":53,"left_children":[1,-1,-1],"loss_changes":[5.0291634E1,0E0,0E0],"parents":[2147483647,0,0],"right_children":[2,-1,-1],"split_conditions":[8.9E1,-6.3407585E-2,2.1924496E-1],"split_indices":[3,0,0],"split_type":[0,0,0],"sum_hessian":[5E0,2E0,3E0],"tree_param":{"num_deleted":"0","num_feature":"4","num_nodes":"3","size_leaf_vector":"1"}},{"base_weights":[-1.174972E0,-1.7347597E-1,1.6813023E-1,-1.5551186E-1,1.4458511E0,2.1355076E-1,-3.2819366E-1,-1.0105858E-1,4.549281E-2],"categories":[],"categories_nodes":[],"categories_segments":[],"categories_sizes":[],"default_left":[0,0,0,0,0,0,0,0,0],"id":54,"left_children":[1,-1,3,-1,5,-1,7,-1,-1],"loss_changes":[2.523782E1,0E0,2.9629972E1,0E0,2.646156E1,0E0,1.02229395E1,0E0,0E0],"parents":[2147483647,0,0,2,2,4,4,6,6],"right_children":[2,-1,4,-1,6,-1,8,-1,-1],"split_conditions":[7.7E1,-1.7347597E-1,2.3741035E1,-1.5551186E-1,2.628105E1,2.1355076E-1,9.9E1,-1.0105858E-1,4.549281E-2],"split_indices":[3,0,0,0,0,0,3,0,0],"split_type":[0,0,0,0,0,0,0,0,0],"sum_hessian":[7E0,2E0,5E0,1E0,4E0,1E0,3E0,1E0,2E0],"tree_param":{"num_deleted":"0","num_feature":"4","num_nodes":"9","size_leaf_vector":"1"}},{"base_weights":[-2.489896E0,-2.3290622E-1,-6.909798E-1,-9.85321E-2,1.2159634E-1,-2.92586E-1,3.4103584E-2,3.1860925E-2,-5.3804874E-2],"categories":[],"categories_nodes":[],"categories_segments":[],"categories_sizes":[],"default_left":[0,0,0,0,0,0,0,0,0],"id":55,"left_children":[1,-1,3,-1,5,7,-1,-1,-1],"loss_changes":[2.4084564E1,0E0,5.438738E0,0E0,1.1281205E0,2.8712466E0,0E0,0E0,0E0],"parents":[2147483647,0,0,2,2,4,4,5,5],"right_children":[2,-1,4,-1,6,8,-1,-1,-1],"split_conditions":[2.6997694E1,-2.3290622E-1,5E1,-9.85321E-2,3.7932095E1,3.1601095E1,3.4103584E-2,3.1860925E-2,-5.3804874E-2],"split_indices":[0,0,2,0,0,0,0,0,0],"split_type":[0,0,0,0,0,0,0,0,0],"sum_hessian":[6E0,2E0,4E0,1E0,3E0,2E0,1E0,1E0,1E0],"tree_param":{"num_deleted":"0","num_feature":"4","num_nodes":"9","size_leaf_vector":"1"}},{"base_weights":[-4.2864692E-1,-2.7318163E0,1.1782404E0,-1.9191256E-1,-5.417938E-2,7.451506E-2,1.8470638E-2],"categories":[],"categories_nodes":[],"categories_segments":[],"categories_sizes":[],"default_left":[0,0,0,0,0,0,0],"id":56,"left_children":[1,3,5,-1,-1,-1,-1],"loss_changes":[3.6527138E1,3.1355515E0,9.6388435E-1,0E0,0E0,0E0,0E0],"parents":[2147483647,0,0,1,1,2,2],"right_children":[2,4,6,-1,-1,-1,-1],"split_conditions":[8.9E1,7.2E1,1.05E2,-1.9191256E-1,-5.417938E-2,7.451506E-2,1.8470638E-2],"split_indices":[3,3,3,0,0,0,0],"split_type":[0,0,0,0,0,0,0],"sum_hessian":[8E0,3E0,5E0,1E0,2E0,3E0,2E0],"tree_param":{"num_deleted":"0","num_feature":"4","num_nodes":"7","size_leaf_vector":"1"}},{"base_weights":[-1.0475888E0,-1.5881328E-1,1.4356886E-2,-1.4626332E-1,9.9183846E-1,2.1217155E-1,-5.0716627E-1,-8.3591014E-2,4.132716E-2],"categories":[],"categories_nodes":[],"categories_segments":[],"categories_sizes":[],"default_left":[0,0,0,0,0,0,0,0,0],"id":57,"left_children":[1,-1,3,-1,5,-1,7,-1,-1],"loss_changes":[2.0390453E1,0E0,2.3015385E1,0E0,3.1397041E1,0E0,9.148382E0,0E0,0E0],"parents":[2147483647,0,0,2,2,4,4,6,6],"right_children":[2,-1,4,-1,6,-1,8,-1,-1],"split_conditions":[7.7E1,-1.5881328E-1,2.3741035E1,-1.4626332E-1,2.628105E1,2.1217155E-1,9.9E1,-8.3591014E-2,4.132716E-2],"split_indices":[3,0,0,0,0,0,3,0,0],"split_type":[0,0,0,0,0,0,0,0,0],"sum_hessian":[8E0,2E0,6E0,1E0,5E0,1E0,4E0,2E0,2E0],"tree_param":{"num_deleted":"0","num_feature":"4","num_nodes":"9","size_leaf_vector":"1"}},{"base_weights":[-1.0102289E0,-3.07039E0,1.701573E-2,-1.8314438E-1,-4.7134876E-2,-1.4260674E-1,9.7056323E-1,2.0686722E-1,-4.9026185E-1,-1.616094E0,3.9949547E-2,-9.584198E-2,-2.5365068E-2],"categories":[],"categories_nodes":[],"categories_segments":[],"categories_sizes":[],"default_left":[0,0,0,0,0,0,0,0,0,0,0,0,0],"id":58,"left_children":[1,3,5,-1,-1,-1,7,-1,9,11,-1,-1,-1],"loss_changes":[1.909885E1,3.2896233E-1,2.1919275E1,0E0,0E0,0E0,2.978506E1,0E0,8.5486555E0,2.797842E-2,0E0,0E0,0E0],"parents":[2147483647,0,0,1,1,2,2,6,6,8,8,9,9],"right_children":[2,4,6,-1,-1,-1,8,-1,10,12,-1,-1,-1],"split_conditions":[7.7E1,2.6997694E1,2.3741035E1,-1.8314438E-1,-4.7134876E-2,-1.4260674E-1,2.628105E1,2.0686722E-1,5E1,3.248442E1,3.9949547E-2,-9.584198E-2,-2.5365068E-2],"split_indices":[3,0,0,0,0,0,0,0,2,0,0,0,0],"split_type":[0,0,0,0,0,0,0,0,0,0,0,0,0],"sum_hessian":[8E0,2E0,6E0,1E0,1E0,1E0,5E0,1E0,4E0,2E0,2E0,1E0,1E0],"tree_param":{"num_deleted":"0","num_feature":"4","num_nodes":"13","size_leaf_vector":"1"}},{"base_weights":[5.6334066E-1,-2.9936306E0,2.2479362E0,-1.7856579E-1,-4.595652E-2,2.0169564E-1,1.0839584E0,-9.344597E-2,2.2894077E0,2.716961E-2,2.690282E0,1.7101383E-1,3.0757332E-2],"categories":[],"categories_nodes":[],"categories_segments":[],"categories_sizes":[],"default_left":[0,0,0,0,0,0,0,0,0,0,0,0,0],"id":59,"left_children":[1,3,5,-1,-1,-1,7,-1,9,-1,11,-1,-1],"loss_changes":[5.466596E1,3.1271935E-1,8.100426E0,0E0,0E0,0E0,2.2076443E1,0E0,1.3378525E0,0E0,2.4405422E0,0E0,0E0],"parents":[2147483647,0,0,1,1,2,2,6,6,8,8,10,10],"right_children":[2,4,6,-1,-1,-1,8,-1,10,-1,12,-1,-1],"split_conditions":[7.7E1,2.6997694E1,2.628105E1,-1.7856579E-1,-4.595652E-2,2.0169564E-1,9.9E1,-9.344597E-2,3.1601095E1,2.716961E-2,4.1609924E1,1.7101383E-1,3.0757332E-2],"split_indices":[3,0,0,0,0,0,3,0,0,0,0,0,0],"split_type":[0,0,0,0,0,0,0,0,0,0,0,0,0],"sum_hessian":[7E0,2E0,5E0,1E0,1E0,1E0,4E0,1E0,3E0,1E0,2E0,1E0,1E0],"tree_param":{"num_deleted":"0","num_feature":"4","num_nodes":"13","size_leaf_vector":"1"}},{"base_weights":[2.8734064E-1,1.9665317E-1,-7.953431E-1,-2.0394905E0,1.6673851E-1,-2.8760633E0,-2.4422963E-1,-1.7680766E-1,-2.2394849E-2,2.6490403E-2,-4.4807624E-2],"categories":[],"categories_nodes":[],"categories_segments":[],"categories_sizes":[],"default_left":[0,0,0,0,0,0,0,0,0,0,0],"id":60,"left_children":[1,-1,3,5,-1,7,9,-1,-1,-1,-1],"loss_changes":[3.4705452E1,0E0,4.2770515E1,8.308779E0,0E0,4.8274E0,1.9886274E0,0E0,0E0,0E0,0E0],"parents":[2147483647,0,0,2,2,3,3,5,5,6,6],"right_children":[2,-1,4,6,-1,8,10,-1,-1,-1,-1],"split_conditions":[2.628105E1,1.9665317E-1,3.7932095E1,5E1,1.6673851E-1,3.248442E1,3.1601095E1,-1.7680766E-1,-2.2394849E-2,2.6490403E-2,-4.4807624E-2],"split_indices":[0,0,0,2,0,0,0,0,0,0,0],"split_type":[0,0,0,0,0,0,0,0,0,0,0],"sum_hessian":[7E0,1E0,6E0,5E0,1E0,3E0,2E0,2E0,1E0,1E0,1E0],"tree_param":{"num_deleted":"0","num_feature":"4","num_nodes":"11","size_leaf_vector":"1"}},{"base_weights":[-4.7798485E-1,-1.4900036E-1,4.3568674E-1,1.917368E-1,-1.0110703E0,2.5828172E-2,-7.6105975E-2],"categories":[],"categories_nodes":[],"categories_segments":[],"categories_sizes":[],"default_left":[0,0,0,0,0,0,0],"id":61,"left_children":[1,-1,3,-1,5,-1,-1],"loss_changes":[1.7300535E1,0E0,3.3382774E1,0E0,4.689751E0,0E0,0E0],"parents":[2147483647,0,0,2,2,4,4],"right_children":[2,-1,4,-1,6,-1,-1],"split_conditions":[2.3741035E1,-1.4900036E-1,2.628105E1,1.917368E-1,3.1601095E1,2.5828172E-2,-7.6105975E-2],"split_indices":[0,0,0,0,0,0,0],"split_type":[0,0,0,0,0,0,0],"sum_hessian":[6E0,1E0,5E0,1E0,4E0,1E0,3E0],"tree_param":{"num_deleted":"0","num_feature":"4","num_nodes":"7","size_leaf_vector":"1"}},{"base_weights":[4.5542637E-1,-2.8281593E0,2.3344924E0,-1.7032719E-1,-4.1784763E-2,1.8694344E-1,1.0486813E0,-8.478699E-2,2.528735E0,2.5182534E-2,1.6447258E-1],"categories":[],"categories_nodes":[],"categories_segments":[],"categories_sizes":[],"default_left":[0,0,0,0,0,0,0,0,0,0,0],"id":62,"left_children":[1,3,5,-1,-1,-1,7,-1,9,-1,-1],"loss_changes":[4.979284E1,6.1039734E-1,5.107931E0,0E0,0E0,0E0,2.0535637E1,0E0,2.9648113E0,0E0,0E0],"parents":[2147483647,0,0,1,1,2,2,6,6,8,8],"right_children":[2,4,6,-1,-1,-1,8,-1,10,-1,-1],"split_conditions":[7.7E1,2.6997694E1,2.628105E1,-1.7032719E-1,-4.1784763E-2,1.8694344E-1,9.9E1,-8.478699E-2,3.1601095E1,2.5182534E-2,1.6447258E-1],"split_indices":[3,0,0,0,0,0,3,0,0,0,0],"split_type":[0,0,0,0,0,0,0,0,0,0,0],"sum_hessian":[6E0,2E0,4E0,1E0,1E0,1E0,3E0,1E0,2E0,1E0,1E0],"tree_param":{"num_deleted":"0","num_feature":"4","num_nodes":"11","size_leaf_vector":"1"}},{"base_weights":[-3.612094E-1,-1.3291577E0,1.6036072E-1,-1.6606903E-1,-4.435571E-1,-1.4994888E-1,6.673225E-1,2.757637E0,-8.227164E-2,1.8226986E-1,2.4552917E-2],"categories":[],"categories_nodes":[],"categories_segments":[],"categories_sizes":[],"default_left":[0,0,0,0,0,0,0,0,0,0,0],"id":63,"left_children":[1,3,-1,-1,5,-1,7,9,-1,-1,-1],"loss_changes":[3.1895294E1,1.0876976E1,0E0,0E0,1.9033873E1,0E0,2.8709435E1,4.2464333E0,0E0,0E0,0E0],"parents":[2147483647,0,0,1,1,4,4,6,6,7,7],"right_children":[2,4,-1,-1,6,-1,8,10,-1,-1,-1],"split_conditions":[3.7932095E1,7.2E1,1.6036072E-1,-1.6606903E-1,2.3741035E1,-1.4994888E-1,3.1601095E1,2.628105E1,-8.227164E-2,1.8226986E-1,2.4552917E-2],"split_indices":[0,3,0,0,0,0,0,0,0,0,0],"split_type":[0,0,0,0,0,0,0,0,0,0,0],"sum_hessian":[7E0,6E0,1E0,1E0,5E0,1E0,4E0,2E0,2E0,1E0,1E0],"tree_param":{"num_deleted":"0","num_feature":"4","num_nodes":"11","size_leaf_vector":"1"}},{"base_weights":[-1.9981318E0,-1.1977942E-1,1.9601632E-2],"categories":[],"categories_nodes":[],"categories_segments":[],"categories_sizes":[],"default_left":[0,0,0],"id":64,"left_children":[1,-1,-1],"loss_changes":[8.539045E0,0E0,0E0],"parents":[2147483647,0,0],"right_children":[2,-1,-1],"split_conditions":[1.06E2,-1.1977942E-1,1.9601632E-2],"split_indices":[3,0,0],"split_type":[0,0,0],"sum_hessian":[7E0,6E0,1E0],"tree_param":{"num_deleted":"0","num_feature":"4","num_nodes":"3","size_leaf_vector":"1"}},{"base_weights":[-1.3037364E-1,-1.1873823E0,2.3794377E0,-1.5892287E-1,-3.257936E-1,1.5934621E-1,1.9111633E-2,-1.4320564E-1,7.5469285E-1,2.768552E0,-7.553654E-2,1.8070774E-1,2.693367E-2],"categories":[],"categories_nodes":[],"categories_segments":[],"categories_sizes":[],"default_left":[0,0,0,0,0,0,0,0,0,0,0,0,0],"id":65,"left_children":[1,3,5,-1,7,-1,-1,-1,9,11,-1,-1,-1],"loss_changes":[2.6701334E1,1.0972892E1,3.6200008E0,0E0,1.8617243E1,0E0,0E0,0E0,2.699376E1,3.7099228E0,0E0,0E0,0E0],"parents":[2147483647,0,0,1,1,2,2,4,4,8,8,9,9],"right_children":[2,4,6,-1,8,-1,-1,-1,10,12,-1,-1,-1],"split_conditions":[3.7932095E1,7.2E1,4.1609924E1,-1.5892287E-1,2.3741035E1,1.5934621E-1,1.9111633E-2,-1.4320564E-1,3.1601095E1,2.628105E1,-7.553654E-2,1.8070774E-1,2.693367E-2],"split_indices":[0,3,0,0,0,0,0,0,0,0,0,0,0],"split_type":[0,0,0,0,0,0,0,0,0,0,0,0,0],"sum_hessian":[8E0,6E0,2E0,1E0,5E0,1E0,1E0,1E0,4E0,2E0,2E0,1E0,1E0],"tree_param":{"num_deleted":"0","num_feature":"4","num_nodes":"13","size_leaf_vector":"1"}},{"base_weights":[-2.5405967E-1,-1.0626297E0,1.5536252E-1,-1.5494977E-1,-3.2900673E-1,-1.3962555E-1,5.469958E-1,1.7619E-1,-7.53125E-1,2.6260376E-2,-6.02005E-2],"categories":[],"categories_nodes":[],"categories_segments":[],"categories_sizes":[],"default_left":[0,0,0,0,0,0,0,0,0,0,0],"id":66,"left_children":[1,3,-1,-1,5,-1,7,-1,9,-1,-1],"loss_changes":[2.7762545E1,1.0931805E1,0E0,0E0,1.6633745E1,0E0,2.5875092E1,0E0,3.51426E0,0E0,0E0],"parents":[2147483647,0,0,1,1,4,4,6,6,8,8],"right_children":[2,4,-1,-1,6,-1,8,-1,10,-1,-1],"split_conditions":[3.7932095E1,7.2E1,1.5536252E-1,-1.5494977E-1,2.3741035E1,-1.3962555E-1,2.628105E1,1.7619E-1,3.1601095E1,2.6260376E-2,-6.02005E-2],"split_indices":[0,3,0,0,0,0,0,0,0,0,0],"split_type":[0,0,0,0,0,0,0,0,0,0,0],"sum_hessian":[8E0,7E0,1E0,1E0,6E0,1E0,5E0,1E0,4E0,1E0,3E0],"tree_param":{"num_deleted":"0","num_feature":"4","num_nodes":"11","size_leaf_vector":"1"}},{"base_weights":[-1.5791932E-1,-1.0285397E0,2.2163746E0,-1.5107603E-1,-3.1218228E-1,1.514784E-1,1.4749718E-2,-1.3613491E-1,5.433534E-1,1.7178516E-1,-7.2225726E-1,2.5603866E-2,-5.7943013E-2],"categories":[],"categories_nodes":[],"categories_segments":[],"categories_sizes":[],"default_left":[0,0,0,0,0,0,0,0,0,0,0,0,0],"id":67,"left_children":[1,3,5,-1,7,-1,-1,-1,9,-1,11,-1,-1],"loss_changes":[2.2950716E1,1.0478229E1,3.7936544E0,0E0,1.5915364E1,0E0,0E0,0E0,2.4444996E1,0E0,3.287997E0,0E0,0E0],"parents":[2147483647,0,0,1,1,2,2,4,4,8,8,10,10],"right_children":[2,4,6,-1,8,-1,-1,-1,10,-1,12,-1,-1],"split_conditions":[3.7932095E1,7.2E1,4.1609924E1,-1.5107603E-1,2.3741035E1,1.514784E-1,1.4749718E-2,-1.3613491E-1,2.628105E1,1.7178516E-1,3.1601095E1,2.5603866E-2,-5.7943013E-2],"split_indices":[0,3,0,0,0,0,0,0,0,0,0,0,0],"split_type":[0,0,0,0,0,0,0,0,0,0,0,0,0],"sum_hessian":[9E0,7E0,2E0,1E0,6E0,1E0,1E0,1E0,5E0,1E0,4E0,1E0,3E0],"tree_param":{"num_deleted":"0","num_feature":"4","num_nodes":"13","size_leaf_vector":"1"}},{"base_weights":[-1.4817771E-1,-2.375281E0,7.0550823E-1,-1.472991E-1,-3.0846978E-2,-7.919502E-3,8.5154945E-1,5.9840202E-2,1.4670372E-2],"categories":[],"categories_nodes":[],"categories_segments":[],"categories_sizes":[],"default_left":[0,0,0,0,0,0,0,0,0],"id":68,"left_children":[1,3,5,-1,-1,-1,7,-1,-1],"loss_changes":[2.0688248E1,1.1929703E0,1.1441946E0,0E0,0E0,0E0,9.977565E-1,0E0,0E0],"parents":[2147483647,0,0,1,1,2,2,6,6],"right_children":[2,4,6,-1,-1,-1,8,-1,-1],"split_conditions":[7.7E1,5E1,8.9E1,-1.472991E-1,-3.0846978E-2,-7.919502E-3,1.05E2,5.9840202E-2,1.4670372E-2],"split_indices":[3,2,3,0,0,0,3,0,0],"split_type":[0,0,0,0,0,0,0,0,0],"sum_hessian":[9E0,2E0,7E0,1E0,1E0,1E0,6E0,3E0,3E0],"tree_param":{"num_deleted":"0","num_feature":"4","num_nodes":"9","size_leaf_vector":"1"}},{"base_weights":[8.9952755E-1,-1.3309841E-1,1.7885939E0,-5.039647E-1,2.8064103E0,-7.7215196E-3,-3.0075837E-2,1.6839352E-1,1.4014244E-2],"categories":[],"categories_nodes":[],"categories_segments":[],"categories_sizes":[],"default_left":[0,0,0,0,0,0,0,0,0],"id":69,"left_children":[1,-1,3,5,7,-1,-1,-1,-1],"loss_changes":[3.009243E1,0E0,1.7748156E1,9.400845E-3,6.147629E0,0E0,0E0,0E0,0E0],"parents":[2147483647,0,0,2,2,3,3,4,4],"right_children":[2,-1,4,6,8,-1,-1,-1,-1],"split_conditions":[2.3741035E1,-1.3309841E-1,8.9E1,3.302777E1,4.1609924E1,-7.7215196E-3,-3.0075837E-2,1.6839352E-1,1.4014244E-2],"split_indices":[0,0,3,0,0,0,0,0,0],"split_type":[0,0,0,0,0,0,0,0,0],"sum_hessian":[7E0,1E0,6E0,2E0,4E0,1E0,1E0,3E0,1E0],"tree_param":{"num_deleted":"0","num_feature":"4","num_nodes":"9","size_leaf_vector":"1"}},{"base_weights":[-2.0282249E-1,-1.0374207E0,2.0903804E0,-1.4342356E-1,-3.6606053E-1,1.4311467E-1,1.3663865E-2,-1.2977104E-1,4.3806967E-1,1.6178475E-1,-7.685944E-1,1.9257927E-2,-5.766611E-2],"categories":[],"categories_nodes":[],"categories_segments":[],"categories_sizes":[],"default_left":[0,0,0,0,0,0,0,0,0,0,0,0,0],"id":70,"left_children":[1,3,5,-1,7,-1,-1,-1,9,-1,11,-1,-1],"loss_changes":[2.1307636E1,8.78432E0,3.4257355E0,0E0,1.3685846E1,0E0,0E0,0E0,2.27417E1,0E0,2.6636164E0,0E0,0E0],"parents":[2147483647,0,0,1,1,2,2,4,4,8,8,10,10],"right_children":[2,4,6,-1,8,-1,-1,-1,10,-1,12,-1,-1],"split_conditions":[3.7932095E1,7.2E1,4.1609924E1,-1.4342356E-1,2.3741035E1,1.4311467E-1,1.3663865E-2,-1.2977104E-1,2.628105E1,1.6178475E-1,3.1601095E1,1.9257927E-2,-5.766611E-2],"split_indices":[0,3,0,0,0,0,0,0,0,0,0,0,0],"split_type":[0,0,0,0,0,0,0,0,0,0,0,0,0],"sum_hessian":[9E0,7E0,2E0,1E0,6E0,1E0,1E0,1E0,5E0,1E0,4E0,1E0,3E0],"tree_param":{"num_deleted":"0","num_feature":"4","num_nodes":"13","size_leaf_vector":"1"}},{"base_weights":[1.2907536E-1,-2.2362697E0,1.1243553E0,-1.3983794E-1,-2.7882291E-2,-1.2652683E-1,2.15526E0,-6.0868263E-3,2.6350067E0,1.580268E-1,1.3322258E-2],"categories":[],"categories_nodes":[],"categories_segments":[],"categories_sizes":[],"default_left":[0,0,0,0,0,0,0,0,0,0,0],"id":71,"left_children":[1,3,5,-1,-1,-1,7,-1,9,-1,-1],"loss_changes":[2.3701984E1,1.26295E0,3.1828884E1,0E0,0E0,0E0,6.8750668E0,0E0,5.3816338E0,0E0,0E0],"parents":[2147483647,0,0,1,1,2,2,6,6,8,8],"right_children":[2,4,6,-1,-1,-1,8,-1,10,-1,-1],"split_conditions":[7.7E1,2.6997694E1,2.3741035E1,-1.3983794E-1,-2.7882291E-2,-1.2652683E-1,8.9E1,-6.0868263E-3,4.1609924E1,1.580268E-1,1.3322258E-2],"split_indices":[3,0,0,0,0,0,3,0,0,0,0],"split_type":[0,0,0,0,0,0,0,0,0,0,0],"sum_hessian":[8E0,2E0,6E0,1E0,1E0,1E0,5E0,1E0,4E0,3E0,1E0],"tree_param":{"num_deleted":"0","num_feature":"4","num_nodes":"11","size_leaf_vector":"1"}},{"base_weights":[1.0828993E-1,-2.1803627E0,1.0736711E0,-1.3634196E-1,-2.718525E-2,-1.2336369E-1,2.0750408E0,-5.93462E-3,2.537526E0,1.5210076E-1,1.2989235E-2],"categories":[],"categories_nodes":[],"categories_segments":[],"categories_sizes":[],"default_left":[0,0,0,0,0,0,0,0,0,0,0],"id":72,"left_children":[1,3,5,-1,-1,-1,7,-1,9,-1,-1],"loss_changes":[2.2225792E1,1.2005882E0,2.9940256E1,0E0,0E0,0E0,6.3886013E0,0E0,4.955208E0,0E0,0E0],"parents":[2147483647,0,0,1,1,2,2,6,6,8,8],"right_children":[2,4,6,-1,-1,-1,8,-1,10,-1,-1],"split_conditions":[7.7E1,2.6997694E1,2.3741035E1,-1.3634196E-1,-2.718525E-2,-1.2336369E-1,8.9E1,-5.93462E-3,4.1609924E1,1.5210076E-1,1.2989235E-2],"split_indices":[3,0,0,0,0,0,3,0,0,0,0],"split_type":[0,0,0,0,0,0,0,0,0,0,0],"sum_hessian":[8E0,2E0,6E0,1E0,1E0,1E0,5E0,1E0,4E0,3E0,1E0],"tree_param":{"num_deleted":"0","num_feature":"4","num_nodes":"11","size_leaf_vector":"1"}},{"base_weights":[-3.4445402E-1,-1.0464292E0,1.3178368E-1,3.9610037E-1,-1.593289E0,-1.20279506E-1,1.4998703E-1,-2.2351103E0,-2.0643108E-1,-1.4514987E-1,-5.7862285E-3,1.10233305E-2,-2.6505662E-2],"categories":[],"categories_nodes":[],"categories_segments":[],"categories_sizes":[],"default_left":[0,0,0,0,0,0,0,0,0,0,0,0,0],"id":73,"left_children":[1,3,-1,5,7,-1,-1,9,11,-1,-1,-1,-1],"loss_changes":[2.1585825E1,6.9419947E0,0E0,2.9099928E1,4.8792944E0,0E0,0E0,5.3260937E0,5.3140974E-1,0E0,0E0,0E0,0E0],"parents":[2147483647,0,0,1,1,3,3,4,4,7,7,8,8],"right_children":[2,4,-1,6,8,-1,-1,10,12,-1,-1,-1,-1],"split_conditions":[3.7932095E1,2.628105E1,1.3178368E-1,2.3741035E1,5E1,-1.20279506E-1,1.4998703E-1,3.248442E1,3.1601095E1,-1.4514987E-1,-5.7862285E-3,1.10233305E-2,-2.6505662E-2],"split_indices":[0,0,0,0,2,0,0,0,0,0,0,0,0],"split_type":[0,0,0,0,0,0,0,0,0,0,0,0,0],"sum_hessian":[8E0,7E0,1E0,2E0,5E0,1E0,1E0,3E0,2E0,2E0,1E0,1E0,1E0],"tree_param":{"num_deleted":"0","num_feature":"4","num_nodes":"13","size_leaf_vector":"1"}},{"base_weights":[-8.5994176E-4,-4.197947E-1,1.2533645E-2,-5.641556E-3,-2.5843048E-2],"categories":[],"categories_nodes":[],"categories_segments":[],"categories_sizes":[],"default_left":[0,0,0,0,0],"id":74,"left_children":[1,3,-1,-1,-1],"loss_changes":[8.428622E-1,3.1069398E-2,0E0,0E0,0E0],"parents":[2147483647,0,0,1,1],"right_children":[2,4,-1,-1,-1],"split_conditions":[8.9E1,5E1,1.2533645E-2,-5.641556E-3,-2.5843048E-2],"split_indices":[3,2,0,0,0],"split_type":[0,0,0,0,0],"sum_hessian":[6E0,2E0,4E0,1E0,1E0],"tree_param":{"num_deleted":"0","num_feature":"4","num_nodes":"5","size_leaf_vector":"1"}},{"base_weights":[2.8369394E-1,-4.0929922E-1,5.4016334E-1,-5.5005075E-3,-2.5196934E-2,4.296532E-2,1.20322425E-2],"categories":[],"categories_nodes":[],"categories_segments":[],"categories_sizes":[],"default_left":[0,0,0,0,0,0,0],"id":75,"left_children":[1,3,5,-1,-1,-1,-1],"loss_changes":[1.8206722E0,2.9535353E-2,4.6233678E-1,0E0,0E0,0E0,0E0],"parents":[2147483647,0,0,1,1,2,2],"right_children":[2,4,6,-1,-1,-1,-1],"split_conditions":[8.9E1,5E1,5E1,-5.5005075E-3,-2.5196934E-2,4.296532E-2,1.20322425E-2],"split_indices":[3,2,2,0,0,0,0],"split_type":[0,0,0,0,0,0,0],"sum_hessian":[8E0,2E0,6E0,1E0,1E0,2E0,4E0],"tree_param":{"num_deleted":"0","num_feature":"4","num_nodes":"7","size_leaf_vector":"1"}},{"base_weights":[2.833538E-1,1.4484978E-1,-8.187736E-1,1.0133552E-2,-1.1248026E0,-8.255024E-2,-3.9906693E-1,-5.3629875E-3,-2.4567032E-2],"categories":[],"categories_nodes":[],"categories_segments":[],"categories_sizes":[],"default_left":[0,0,0,0,0,0,0,0,0],"id":76,"left_children":[1,-1,3,-1,5,-1,7,-1,-1],"loss_changes":[1.965538E1,0E0,1.7909226E0,0E0,8.686733E-1,0E0,2.8077334E-2,0E0,0E0],"parents":[2147483647,0,0,2,2,4,4,6,6],"right_children":[2,-1,4,-1,6,-1,8,-1,-1],"split_conditions":[2.628105E1,1.4484978E-1,3.1601095E1,1.0133552E-2,3.248442E1,-8.255024E-2,3.302777E1,-5.3629875E-3,-2.4567032E-2],"split_indices":[0,0,0,0,0,0,0,0,0],"split_type":[0,0,0,0,0,0,0,0,0],"sum_hessian":[5E0,1E0,4E0,1E0,3E0,1E0,2E0,1E0,1E0],"tree_param":{"num_deleted":"0","num_feature":"4","num_nodes":"9","size_leaf_vector":"1"}},{"base_weights":[-2.85952E-1,-1.0467348E0,1.8381195E0,-1.2927942E-1,-4.575288E-1,1.2848912E-1,9.36985E-3,-1.21508025E-1,2.762699E-1,1.4122848E-1,-7.9830396E-1,9.880257E-3,-5.4834127E-2],"categories":[],"categories_nodes":[],"categories_segments":[],"categories_sizes":[],"default_left":[0,0,0,0,0,0,0,0,0,0,0,0,0],"id":77,"left_children":[1,3,5,-1,7,-1,-1,-1,9,-1,11,-1,-1],"loss_changes":[1.8083593E1,6.070633E0,3.1417465E0,0E0,1.0803983E1,0E0,0E0,0E0,1.8684883E1,0E0,1.7024999E0,0E0,0E0],"parents":[2147483647,0,0,1,1,2,2,4,4,8,8,10,10],"right_children":[2,4,6,-1,8,-1,-1,-1,10,-1,12,-1,-1],"split_conditions":[3.7932095E1,7.2E1,4.1609924E1,-1.2927942E-1,2.3741035E1,1.2848912E-1,9.36985E-3,-1.21508025E-1,2.628105E1,1.4122848E-1,3.1601095E1,9.880257E-3,-5.4834127E-2],"split_indices":[0,3,0,0,0,0,0,0,0,0,0,0,0],"split_type":[0,0,0,0,0,0,0,0,0,0,0,0,0],"sum_hessian":[9E0,7E0,2E0,1E0,6E0,1E0,1E0,1E0,5E0,1E0,4E0,1E0,3E0],"tree_param":{"num_deleted":"0","num_feature":"4","num_nodes":"13","size_leaf_vector":"1"}},{"base_weights":[-2.7332002E-1,-1.0137129E0,1.7921677E0,2.5636545E-1,-1.4797999E0,1.2527695E-1,9.135628E-3,-1.18470386E-1,1.376978E-1,-2.0902119E0,-1.7265065E-1,-1.367754E-1,-3.8580894E-3,9.633255E-3,-2.2582054E-2],"categories":[],"categories_nodes":[],"categories_segments":[],"categories_sizes":[],"default_left":[0,0,0,0,0,0,0,0,0,0,0,0,0,0,0],"id":78,"left_children":[1,3,5,7,9,-1,-1,-1,-1,11,13,-1,-1,-1,-1],"loss_changes":[1.7109467E1,5.1151056E0,2.9866238E0,2.6199562E1,4.4265203E0,0E0,0E0,0E0,0E0,4.984976E0,3.9277425E-1,0E0,0E0,0E0,0E0],"parents":[2147483647,0,0,1,1,2,2,3,3,4,4,9,9,10,10],"right_children":[2,4,6,8,10,-1,-1,-1,-1,12,14,-1,-1,-1,-1],"split_conditions":[3.7932095E1,2.628105E1,4.1609924E1,2.3741035E1,5E1,1.2527695E-1,9.135628E-3,-1.18470386E-1,1.376978E-1,3.248442E1,3.1601095E1,-1.367754E-1,-3.8580894E-3,9.633255E-3,-2.2582054E-2],"split_indices":[0,0,0,0,2,0,0,0,0,0,0,0,0,0,0],"split_type":[0,0,0,0,0,0,0,0,0,0,0,0,0,0,0],"sum_hessian":[9E0,7E0,2E0,2E0,5E0,1E0,1E0,1E0,1E0,3E0,2E0,2E0,1E0,1E0,1E0],"tree_param":{"num_deleted":"0","num_feature":"4","num_nodes":"15","size_leaf_vector":"1"}},{"base_weights":[2.565155E-1,-3.4372202E-1,4.771151E-1,-3.761673E-3,-2.2017479E-2,3.903936E-2,9.9744415E-3],"categories":[],"categories_nodes":[],"categories_segments":[],"categories_sizes":[],"default_left":[0,0,0,0,0,0,0],"id":79,"left_children":[1,3,5,-1,-1,-1,-1],"loss_changes":[1.3557043E0,4.470116E-2,4.3439305E-1,0E0,0E0,0E0,0E0],"parents":[2147483647,0,0,1,1,2,2],"right_children":[2,4,6,-1,-1,-1,-1],"split_conditions":[8.9E1,5E1,5E1,-3.761673E-3,-2.2017479E-2,3.903936E-2,9.9744415E-3],"split_indices":[3,2,2,0,0,0,0],"split_type":[0,0,0,0,0,0,0],"sum_hessian":[8E0,2E0,6E0,1E0,1E0,2E0,4E0],"tree_param":{"num_deleted":"0","num_feature":"4","num_nodes":"7","size_leaf_vector":"1"}},{"base_weights":[2.4627262E-1,-1.1575794E-1,8.558464E-1,1.3327943E-1,2.165135E-1,-7.4131167E-1,1.7407175E0,9.143067E-3,-1.0180702E0,1.2189579E-1,8.658028E-3,-7.667237E-2,-1.675644E-2],"categories":[],"categories_nodes":[],"categories_segments":[],"categories_sizes":[],"default_left":[0,0,0,0,0,0,0,0,0,0,0,0,0],"id":80,"left_children":[1,-1,3,-1,5,7,9,-1,11,-1,-1,-1,-1],"loss_changes":[1.6033854E1,0E0,8.679085E0,0E0,1.1509861E1,1.4650295E0,2.8565426E0,0E0,8.939872E-1,0E0,0E0,0E0,0E0],"parents":[2147483647,0,0,2,2,4,4,5,5,6,6,8,8],"right_children":[2,-1,4,-1,6,8,10,-1,12,-1,-1,-1,-1],"split_conditions":[2.3741035E1,-1.1575794E-1,2.628105E1,1.3327943E-1,3.7932095E1,3.1601095E1,4.1609924E1,9.143067E-3,3.248442E1,1.2189579E-1,8.658028E-3,-7.667237E-2,-1.675644E-2],"split_indices":[0,0,0,0,0,0,0,0,0,0,0,0,0],"split_type":[0,0,0,0,0,0,0,0,0,0,0,0,0],"sum_hessian":[8E0,1E0,7E0,1E0,6E0,4E0,2E0,1E0,3E0,1E0,1E0,1E0,2E0],"tree_param":{"num_deleted":"0","num_feature":"4","num_nodes":"13","size_leaf_vector":"1"}},{"base_weights":[-2.7410737E-1,-1.2276258E-1,2.4104775E-1,-3.2395682E-1,4.4875717E-1,-3.2486916E-3,-2.1048069E-2,3.67946E-2,9.336243E-3],"categories":[],"categories_nodes":[],"categories_segments":[],"categories_sizes":[],"default_left":[0,0,0,0,0,0,0,0,0],"id":81,"left_children":[1,-1,3,5,7,-1,-1,-1,-1],"loss_changes":[1.1828109E1,0E0,1.2015889E0,4.801613E-2,3.8926077E-1,0E0,0E0,0E0,0E0],"parents":[2147483647,0,0,2,2,3,3,4,4],"right_children":[2,-1,4,6,8,-1,-1,-1,-1],"split_conditions":[7.2E1,-1.2276258E-1,8.9E1,5E1,5E1,-3.2486916E-3,-2.1048069E-2,3.67946E-2,9.336243E-3],"split_indices":[3,0,3,2,2,0,0,0,0],"split_type":[0,0,0,0,0,0,0,0,0],"sum_hessian":[9E0,1E0,8E0,2E0,6E0,1E0,1E0,2E0,4E0],"tree_param":{"num_deleted":"0","num_feature":"4","num_nodes":"9","size_leaf_vector":"1"}},{"base_weights":[-3.6332273E-1,-1.1969357E-1,2.6873726E-1,-2.0521833E-2,4.50339E-1,3.556811E-2,7.0993425E-3],"categories":[],"categories_nodes":[],"categories_segments":[],"categories_sizes":[],"default_left":[0,0,0,0,0,0,0],"id":82,"left_children":[1,-1,3,-1,5,-1,-1],"loss_changes":[1.091075E1,0E0,1.0482099E0,0E0,3.819182E-1,0E0,0E0],"parents":[2147483647,0,0,2,2,4,4],"right_children":[2,-1,4,-1,6,-1,-1],"split_conditions":[7.2E1,-1.1969357E-1,7.7E1,-2.0521833E-2,5E1,3.556811E-2,7.0993425E-3],"split_indices":[3,0,3,0,2,0,0],"split_type":[0,0,0,0,0,0,0],"sum_hessian":[7E0,1E0,6E0,1E0,5E0,2E0,3E0],"tree_param":{"num_deleted":"0","num_feature":"4","num_nodes":"7","size_leaf_vector":"1"}},{"base_weights":[-8.6948776E-1,-1.8405865E0,1.6862386E0,-1.5331745E-1,-7.3701173E-1,1.1843739E-1,8.0305105E-3,8.503533E-3,-1.0063E0,-7.65646E-2,-3.2087198E-1,-4.0566446E-3,-2.0008756E-2],"categories":[],"categories_nodes":[],"categories_segments":[],"categories_sizes":[],"default_left":[0,0,0,0,0,0,0,0,0,0,0,0,0],"id":83,"left_children":[1,3,5,-1,7,-1,-1,-1,9,-1,11,-1,-1],"loss_changes":[2.5440434E1,7.2091084E0,2.7433205E0,0E0,1.3924751E0,0E0,0E0,0E0,9.480281E-1,0E0,2.4568826E-2,0E0,0E0],"parents":[2147483647,0,0,1,1,2,2,4,4,8,8,10,10],"right_children":[2,4,6,-1,8,-1,-1,-1,10,-1,12,-1,-1],"split_conditions":[3.7932095E1,2.6997694E1,4.1609924E1,-1.5331745E-1,3.1601095E1,1.1843739E-1,8.0305105E-3,8.503533E-3,3.248442E1,-7.65646E-2,3.302777E1,-4.0566446E-3,-2.0008756E-2],"split_indices":[0,0,0,0,0,0,0,0,0,0,0,0,0],"split_type":[0,0,0,0,0,0,0,0,0,0,0,0,0],"sum_hessian":[8E0,6E0,2E0,2E0,4E0,1E0,1E0,1E0,3E0,1E0,2E0,1E0,1E0],"tree_param":{"num_deleted":"0","num_feature":"4","num_nodes":"13","size_leaf_vector":"1"}},{"base_weights":[2.4894248E-1,-3.1285095E-1,4.5414788E-1,-3.9552688E-3,-1.9508554E-2,3.821392E-2,8.861999E-3],"categories":[],"categories_nodes":[],"categories_segments":[],"categories_sizes":[],"default_left":[0,0,0,0,0,0,0],"id":84,"left_children":[1,3,5,-1,-1,-1,-1],"loss_changes":[1.1796281E0,2.3355037E-2,4.656824E-1,0E0,0E0,0E0,0E0],"parents":[2147483647,0,0,1,1,2,2],"right_children":[2,4,6,-1,-1,-1,-1],"split_conditions":[8.9E1,5E1,5E1,-3.9552688E-3,-1.9508554E-2,3.821392E-2,8.861999E-3],"split_indices":[3,2,2,0,0,0,0],"split_type":[0,0,0,0,0,0,0],"sum_hessian":[8E0,2E0,6E0,1E0,1E0,2E0,4E0],"tree_param":{"num_deleted":"0","num_feature":"4","num_nodes":"7","size_leaf_vector":"1"}},{"base_weights":[6.312343E-2,-1.3564663E0,1.4669323E0,-1.1276942E-1,-3.0502954E-1,1.3101597E-1,1.0451508E-2,-3.8563728E-3,-1.9020844E-2],"categories":[],"categories_nodes":[],"categories_segments":[],"categories_sizes":[],"default_left":[0,0,0,0,0,0,0,0,0],"id":85,"left_children":[1,3,5,-1,7,-1,-1,-1,-1],"loss_changes":[1.59396715E1,3.0926785E0,5.2556667E0,0E0,2.2202194E-2,0E0,0E0,0E0,0E0],"parents":[2147483647,0,0,1,1,2,2,4,4],"right_children":[2,4,6,-1,8,-1,-1,-1,-1],"split_conditions":[8.9E1,7.2E1,5E1,-1.1276942E-1,5E1,1.3101597E-1,1.0451508E-2,-3.8563728E-3,-1.9020844E-2],"split_indices":[3,3,2,0,2,0,0,0,0],"split_type":[0,0,0,0,0,0,0,0,0],"sum_hessian":[6E0,3E0,3E0,1E0,2E0,1E0,2E0,1E0,1E0],"tree_param":{"num_deleted":"0","num_feature":"4","num_nodes":"9","size_leaf_vector":"1"}},{"base_weights":[-2.5269204E-1,-1.0995016E-1,2.0789845E-1,-2.9740396E-1,3.9475685E-1,-3.7599565E-3,-1.8545343E-2,3.257281E-2,8.089295E-3],"categories":[],"categories_nodes":[],"categories_segments":[],"categories_sizes":[],"default_left":[0,0,0,0,0,0,0,0,0],"id":86,"left_children":[1,-1,3,5,7,-1,-1,-1,-1],"loss_changes":[9.421694E0,0E0,9.671824E-1,2.1106184E-2,3.132279E-1,0E0,0E0,0E0,0E0],"parents":[2147483647,0,0,2,2,3,3,4,4],"right_children":[2,-1,4,6,8,-1,-1,-1,-1],"split_conditions":[7.2E1,-1.0995016E-1,8.9E1,5E1,5E1,-3.7599565E-3,-1.8545343E-2,3.257281E-2,8.089295E-3],"split_indices":[3,0,3,2,2,0,0,0,0],"split_type":[0,0,0,0,0,0,0,0,0],"sum_hessian":[9E0,1E0,8E0,2E0,6E0,1E0,1E0,2E0,4E0],"tree_param":{"num_deleted":"0","num_feature":"4","num_nodes":"9","size_leaf_vector":"1"}},{"base_weights":[7.7296786E-2,-1.6704407E0,8.152847E-1,-1.0720139E-1,-1.8081665E-2,-1.1012707E-1,1.685346E0,-3.665924E-3,2.0517426E0,1.2466164E-1,7.1445466E-3],"categories":[],"categories_nodes":[],"categories_segments":[],"categories_sizes":[],"default_left":[0,0,0,0,0,0,0,0,0,0,0],"id":87,"left_children":[1,3,5,-1,-1,-1,7,-1,9,-1,-1],"loss_changes":[1.2970167E1,1.0841513E0,2.2091896E1,0E0,0E0,0E0,4.0166435E0,0E0,3.8574371E0,0E0,0E0],"parents":[2147483647,0,0,1,1,2,2,6,6,8,8],"right_children":[2,4,6,-1,-1,-1,8,-1,10,-1,-1],"split_conditions":[7.7E1,2.6997694E1,2.3741035E1,-1.0720139E-1,-1.8081665E-2,-1.1012707E-1,8.9E1,-3.665924E-3,4.1609924E1,1.2466164E-1,7.1445466E-3],"split_indices":[3,0,0,0,0,0,3,0,0,0,0],"split_type":[0,0,0,0,0,0,0,0,0,0,0],"sum_hessian":[8E0,2E0,6E0,1E0,1E0,1E0,5E0,1E0,4E0,3E0,1E0],"tree_param":{"num_deleted":"0","num_feature":"4","num_nodes":"11","size_leaf_vector":"1"}},{"base_weights":[6.365471E-1,1.603138E0,-7.071686E-2,-3.574276E-3,1.2380963E-1,-1.7629623E-2,4.395008E-3],"categories":[],"categories_nodes":[],"categories_segments":[],"categories_sizes":[],"default_left":[0,0,0,0,0,0,0],"id":88,"left_children":[1,3,5,-1,-1,-1,-1],"loss_changes":[4.8988132E0,4.563125E0,2.545443E-1,0E0,0E0,0E0,0E0],"parents":[2147483647,0,0,1,1,2,2],"right_children":[2,4,6,-1,-1,-1,-1],"split_conditions":[5E1,8.9E1,7.7E1,-3.574276E-3,1.2380963E-1,-1.7629623E-2,4.395008E-3],"split_indices":[2,3,3,0,0,0,0],"split_type":[0,0,0,0,0,0,0],"sum_hessian":[6E0,2E0,4E0,1E0,1E0,1E0,3E0],"tree_param":{"num_deleted":"0","num_feature":"4","num_nodes":"7","size_leaf_vector":"1"}},{"base_weights":[1.7993212E-1,-1.6216112E0,1.0507151E0,-1.0443201E-1,-1.7188836E-2,3.9186287E-1,1.5789465E0,2.3204677E-2,4.3792725E-3,1.1156483E-1,6.8561556E-3],"categories":[],"categories_nodes":[],"categories_segments":[],"categories_sizes":[],"default_left":[0,0,0,0,0,0,0,0,0,0,0],"id":89,"left_children":[1,3,5,-1,-1,7,9,-1,-1,-1,-1],"loss_changes":[1.425388E1,1.072331E0,1.4694281E0,0E0,0E0,4.7264755E-2,2.5157585E0,0E0,0E0,0E0,0E0],"parents":[2147483647,0,0,1,1,2,2,5,5,6,6],"right_children":[2,4,6,-1,-1,8,10,-1,-1,-1,-1],"split_conditions":[7.7E1,5E1,1.05E2,-1.0443201E-1,-1.7188836E-2,5E1,1.06E2,2.3204677E-2,4.3792725E-3,1.1156483E-1,6.8561556E-3],"split_indices":[3,2,3,0,0,2,3,0,0,0,0],"split_type":[0,0,0,0,0,0,0,0,0,0,0],"sum_hessian":[7E0,2E0,5E0,1E0,1E0,3E0,2E0,2E0,1E0,1E0,1E0],"tree_param":{"num_deleted":"0","num_feature":"4","num_nodes":"11","size_leaf_vector":"1"}},{"base_weights":[-4.1080332E-1,-1.091065E0,1.0877571E-1,1.3148753E-1,-1.6063836E0,-1.1027279E-1,1.2013435E-1,-2.0506773E0,4.269791E-3,-1.2553908E-1,-1.675911E-2],"categories":[],"categories_nodes":[],"categories_segments":[],"categories_sizes":[],"default_left":[0,0,0,0,0,0,0,0,0,0,0],"id":90,"left_children":[1,3,-1,5,7,-1,-1,9,-1,-1,-1],"loss_changes":[1.6448608E1,4.6212473E0,0E0,2.1222013E1,3.9333544E0,0E0,0E0,2.3156567E0,0E0,0E0,0E0],"parents":[2147483647,0,0,1,1,3,3,4,4,7,7],"right_children":[2,4,-1,6,8,-1,-1,10,-1,-1,-1],"split_conditions":[3.7932095E1,2.628105E1,1.0877571E-1,2.3741035E1,9.9E1,-1.1027279E-1,1.2013435E-1,3.248442E1,4.269791E-3,-1.2553908E-1,-1.675911E-2],"split_indices":[0,0,0,0,3,0,0,0,0,0,0],"split_type":[0,0,0,0,0,0,0,0,0,0,0],"sum_hessian":[7E0,6E0,1E0,2E0,4E0,1E0,1E0,3E0,1E0,2E0,1E0],"tree_param":{"num_deleted":"0","num_feature":"4","num_nodes":"11","size_leaf_vector":"1"}},{"base_weights":[1.3021299E-1,1.1713105E-1,-4.391656E-1,-1.616143E0,1.1418476E0,-1.2135442E-1,-2.664833E-1,1.4695917E0,3.965378E-3,-3.6460876E-3,-1.634016E-2,4.1629793E-3,1.0605641E-1],"categories":[],"categories_nodes":[],"categories_segments":[],"categories_sizes":[],"default_left":[0,0,0,0,0,0,0,0,0,0,0,0,0],"id":91,"left_children":[1,-1,3,5,7,-1,9,11,-1,-1,-1,-1,-1],"loss_changes":[1.2366078E1,0E0,1.6731924E1,4.8257217E0,1.2764153E0,0E0,1.1195779E-2,2.533133E0,0E0,0E0,0E0,0E0,0E0],"parents":[2147483647,0,0,2,2,3,3,4,4,6,6,7,7],"right_children":[2,-1,4,6,8,-1,10,12,-1,-1,-1,-1,-1],"split_conditions":[2.628105E1,1.1713105E-1,9.9E1,3.248442E1,4.1609924E1,-1.2135442E-1,3.302777E1,3.1601095E1,3.965378E-3,-3.6460876E-3,-1.634016E-2,4.1629793E-3,1.0605641E-1],"split_indices":[0,0,3,0,0,0,0,0,0,0,0,0,0],"split_type":[0,0,0,0,0,0,0,0,0,0,0,0,0],"sum_hessian":[8E0,1E0,7E0,4E0,3E0,2E0,2E0,2E0,1E0,1E0,1E0,1E0,1E0],"tree_param":{"num_deleted":"0","num_feature":"4","num_nodes":"13","size_leaf_vector":"1"}},{"base_weights":[-1.9566536E-2,-1.1044426E-1,6.087483E-1,1.1420269E-1,-5.1144917E-2,-8.886139E-1,1.03405E-1,-9.564896E-2,-1.542778E-1,4.058838E-3,-1.2991078E-2],"categories":[],"categories_nodes":[],"categories_segments":[],"categories_sizes":[],"default_left":[0,0,0,0,0,0,0,0,0,0,0],"id":92,"left_children":[1,-1,3,-1,5,7,-1,-1,9,-1,-1],"loss_changes":[1.2349306E1,0E0,7.855477E0,0E0,1.2486554E1,3.466012E0,0E0,0E0,1.20494515E-1,0E0,0E0],"parents":[2147483647,0,0,2,2,4,4,5,5,8,8],"right_children":[2,-1,4,-1,6,8,-1,-1,10,-1,-1],"split_conditions":[2.3741035E1,-1.1044426E-1,2.628105E1,1.1420269E-1,3.7932095E1,2.6997694E1,1.03405E-1,-9.564896E-2,3.1601095E1,4.058838E-3,-1.2991078E-2],"split_indices":[0,0,0,0,0,0,0,0,0,0,0],"split_type":[0,0,0,0,0,0,0,0,0,0,0],"sum_hessian":[7E0,1E0,6E0,1E0,5E0,4E0,1E0,1E0,3E0,1E0,2E0],"tree_param":{"num_deleted":"0","num_feature":"4","num_nodes":"11","size_leaf_vector":"1"}},{"base_weights":[-8.6093307E-1,-2.2157898E0,6.661102E-1,-1.3396059E-1,-1.013771E0,-2.5115967E-1,1.3613434E0,3.957367E-3,-7.99902E-2,-3.230095E-3,-1.560688E-2,1.0081978E-1,1.2809754E-3],"categories":[],"categories_nodes":[],"categories_segments":[],"categories_sizes":[],"default_left":[0,0,0,0,0,0,0,0,0,0,0,0,0],"id":93,"left_children":[1,3,5,-1,7,9,11,-1,-1,-1,-1,-1,-1],"loss_changes":[2.0096283E1,6.910324E-2,3.5304964E0,0E0,2.0480783E0,1.3963044E-2,2.5732474E0,0E0,0E0,0E0,0E0,0E0,0E0],"parents":[2147483647,0,0,1,1,2,2,4,4,5,5,6,6],"right_children":[2,4,6,-1,8,10,12,-1,-1,-1,-1,-1,-1],"split_conditions":[3.248442E1,2.6997694E1,3.7932095E1,-1.3396059E-1,3.1601095E1,3.302777E1,4.1609924E1,3.957367E-3,-7.99902E-2,-3.230095E-3,-1.560688E-2,1.0081978E-1,1.2809754E-3],"split_indices":[0,0,0,0,0,0,0,0,0,0,0,0,0],"split_type":[0,0,0,0,0,0,0,0,0,0,0,0,0],"sum_hessian":[8E0,4E0,4E0,2E0,2E0,2E0,2E0,1E0,1E0,1E0,1E0,1E0,1E0],"tree_param":{"num_deleted":"0","num_feature":"4","num_nodes":"13","size_leaf_vector":"1"}},{"base_weights":[-4.5548248E-1,-1.8311596E0,1.0340652E0,-1.11932814E-1,-1.5216732E-2,1.3621012E0,1.2489319E-3,3.8583756E-3,9.829922E-2],"categories":[],"categories_nodes":[],"categories_segments":[],"categories_sizes":[],"default_left":[0,0,0,0,0,0,0,0,0],"id":94,"left_children":[1,3,5,-1,-1,7,-1,-1,-1],"loss_changes":[1.6237495E1,1.8074045E0,1.2900438E0,0E0,0E0,2.1761389E0,0E0,0E0,0E0],"parents":[2147483647,0,0,1,1,2,2,5,5],"right_children":[2,4,6,-1,-1,8,-1,-1,-1],"split_conditions":[9.9E1,3.248442E1,4.1609924E1,-1.11932814E-1,-1.5216732E-2,3.1601095E1,1.2489319E-3,3.8583756E-3,9.829922E-2],"split_indices":[3,0,0,0,0,0,0,0,0],"split_type":[0,0,0,0,0,0,0,0,0],"sum_hessian":[6E0,3E0,3E0,2E0,1E0,2E0,1E0,1E0,1E0],"tree_param":{"num_deleted":"0","num_feature":"4","num_nodes":"9","size_leaf_vector":"1"}},{"base_weights":[-2.811271E-1,-9.1607445E-1,1.2941259E0,1.741867E-1,-1.3870163E0,9.584179E-2,1.2176514E-3,-1.0443077E-1,1.1749478E-1,-1.771389E0,3.7618638E-3,-1.08201735E-1,-1.4836311E-2],"categories":[],"categories_nodes":[],"categories_segments":[],"categories_sizes":[],"default_left":[0,0,0,0,0,0,0,0,0,0,0,0,0],"id":95,"left_children":[1,3,5,7,9,-1,-1,-1,-1,11,-1,-1,-1],"loss_changes":[1.018734E1,3.8357472E0,2.32542E0,1.9677624E1,2.9435263E0,0E0,0E0,0E0,0E0,1.673953E0,0E0,0E0,0E0],"parents":[2147483647,0,0,1,1,2,2,3,3,4,4,9,9],"right_children":[2,4,6,8,10,-1,-1,-1,-1,12,-1,-1,-1],"split_conditions":[3.7932095E1,2.628105E1,4.1609924E1,2.3741035E1,9.9E1,9.584179E-2,1.2176514E-3,-1.0443077E-1,1.1749478E-1,3.248442E1,3.7618638E-3,-1.08201735E-1,-1.4836311E-2],"split_indices":[0,0,0,0,3,0,0,0,0,0,0,0,0],"split_type":[0,0,0,0,0,0,0,0,0,0,0,0,0],"sum_hessian":[8E0,6E0,2E0,2E0,4E0,1E0,1E0,1E0,1E0,3E0,1E0,2E0,1E0],"tree_param":{"num_deleted":"0","num_feature":"4","num_nodes":"13","size_leaf_vector":"1"}},{"base_weights":[-7.8789014E-1,-2.040358E0,6.221558E-1,-1.2415022E-1,-9.1759235E-1,-2.2484589E-1,1.2617722E0,3.6678314E-3,-7.248726E-2,-2.398014E-3,-1.4465428E-2,9.344578E-2,1.1871338E-3],"categories":[],"categories_nodes":[],"categories_segments":[],"categories_sizes":[],"default_left":[0,0,0,0,0,0,0,0,0,0,0,0,0],"id":96,"left_children":[1,3,5,-1,7,9,11,-1,-1,-1,-1,-1,-1],"loss_changes":[1.7163755E1,2.065525E-1,2.992485E0,0E0,1.6883571E0,2.0332232E-2,2.2106109E0,0E0,0E0,0E0,0E0,0E0,0E0],"parents":[2147483647,0,0,1,1,2,2,4,4,5,5,6,6],"right_children":[2,4,6,-1,8,10,12,-1,-1,-1,-1,-1,-1],"split_conditions":[3.248442E1,2.6997694E1,3.7932095E1,-1.2415022E-1,3.1601095E1,3.302777E1,4.1609924E1,3.6678314E-3,-7.248726E-2,-2.398014E-3,-1.4465428E-2,9.344578E-2,1.1871338E-3],"split_indices":[0,0,0,0,0,0,0,0,0,0,0,0,0],"split_type":[0,0,0,0,0,0,0,0,0,0,0,0,0],"sum_hessian":[8E0,4E0,4E0,2E0,2E0,2E0,2E0,1E0,1E0,1E0,1E0,1E0,1E0],"tree_param":{"num_deleted":"0","num_feature":"4","num_nodes":"13","size_leaf_vector":"1"}},{"base_weights":[-2.1452102E-1,-8.130159E-2,1.22983724E-1,4.464817E-1,-1.1317889E-1,-2.338028E-3,3.1324133E-2,-1.41037945E-2,-2.2984315E-2,3.576088E-3,-6.449127E-2,-5.0710044E-3,1.1573791E-3],"categories":[],"categories_nodes":[],"categories_segments":[],"categories_sizes":[],"default_left":[0,0,0,0,0,0,0,0,0,0,0,0,0],"id":97,"left_children":[1,-1,3,5,7,-1,-1,-1,9,-1,11,-1,-1],"loss_changes":[4.9638915E0,0E0,7.381155E-1,3.844309E-1,8.491824E-2,0E0,0E0,0E0,2.4225827E-2,0E0,1.5293224E-2,0E0,0E0],"parents":[2147483647,0,0,2,2,3,3,4,4,8,8,10,10],"right_children":[2,-1,4,6,8,-1,-1,-1,10,-1,12,-1,-1],"split_conditions":[7.2E1,-8.130159E-2,5E1,8.9E1,7.7E1,-2.338028E-3,3.1324133E-2,-1.41037945E-2,1.05E2,3.576088E-3,1.06E2,-5.0710044E-3,1.1573791E-3],"split_indices":[3,0,2,3,3,0,0,0,3,0,3,0,0],"split_type":[0,0,0,0,0,0,0,0,0,0,0,0,0],"sum_hessian":[9E0,1E0,8E0,3E0,5E0,1E0,2E0,1E0,4E0,1E0,3E0,2E0,1E0],"tree_param":{"num_deleted":"0","num_feature":"4","num_nodes":"13","size_leaf_vector":"1"}},{"base_weights":[1.0560036E-1,-1.24027E0,7.609355E-1,-7.926903E-2,-1.3751221E-2,1.1687813E-1,-2.1902466E-2,3.4866333E-3,-6.2244415E-2,-4.901886E-3,1.1283875E-3],"categories":[],"categories_nodes":[],"categories_segments":[],"categories_sizes":[],"default_left":[0,0,0,0,0,0,0,0,0,0,0],"id":98,"left_children":[1,3,5,-1,-1,-1,7,-1,9,-1,-1],"loss_changes":[7.999734E0,5.633316E-1,7.4566593E0,0E0,0E0,0E0,2.282417E-2,0E0,1.4355321E-2,0E0,0E0],"parents":[2147483647,0,0,1,1,2,2,6,6,8,8],"right_children":[2,4,6,-1,-1,-1,8,-1,10,-1,-1],"split_conditions":[7.7E1,5E1,5E1,-7.926903E-2,-1.3751221E-2,1.1687813E-1,1.05E2,3.4866333E-3,1.06E2,-4.901886E-3,1.1283875E-3],"split_indices":[3,2,2,0,0,0,3,0,3,0,0],"split_type":[0,0,0,0,0,0,0,0,0,0,0],"sum_hessian":[7E0,2E0,5E0,1E0,1E0,1E0,4E0,1E0,3E0,2E0,1E0],"tree_param":{"num_deleted":"0","num_feature":"4","num_nodes":"11","size_leaf_vector":"1"}},{"base_weights":[-6.679437E-1,-7.7287294E-2,-3.6500025E-1,1.6244443E-1,-1.2982229E0,-1.2405968E-2,4.2975616E-1,-9.846687E-2,1.1001587E-3,2.63841E-2,3.3994676E-3],"categories":[],"categories_nodes":[],"categories_segments":[],"categories_sizes":[],"default_left":[0,0,0,0,0,0,0,0,0,0,0],"id":99,"left_children":[1,-1,3,5,7,-1,9,-1,-1,-1,-1],"loss_changes":[1.8291221E0,0E0,4.1486754E0,7.6512194E-1,2.7014003E0,0E0,1.0582852E-1,0E0,0E0,0E0,0E0],"parents":[2147483647,0,0,2,2,3,3,4,4,6,6],"right_children":[2,-1,4,6,8,-1,10,-1,-1,-1,-1],"split_conditions":[7.2E1,-7.7287294E-2,1.05E2,8.9E1,1.06E2,-1.2405968E-2,5E1,-9.846687E-2,1.1001587E-3,2.63841E-2,3.3994676E-3],"split_indices":[3,0,3,3,3,0,2,0,0,0,0],"split_type":[0,0,0,0,0,0,0,0,0,0,0],"sum_hessian":[8E0,1E0,7E0,5E0,2E0,2E0,3E0,1E0,1E0,2E0,1E0],"tree_param":{"num_deleted":"0","num_feature":"4","num_nodes":"11","size_leaf_vector":"1"}},{"base_weights":[9.987005E-2,-9.600525E-2,5.9238005E-1,1.132967E-1,2.9596057E-2,-7.177116E-1,1.2652435E0,3.3143999E-3,-9.3028355E-1,9.382057E-2,1.0726929E-3,-7.503968E-2,-1.19924545E-2],"categories":[],"categories_nodes":[],"categories_segments":[],"categories_sizes":[],"default_left":[0,0,0,0,0,0,0,0,0,0,0,0,0],"id":100,"left_children":[1,-1,3,-1,5,7,9,-1,11,-1,-1,-1,-1],"loss_changes":[1.0091153E1,0E0,7.4677315E0,0E0,7.371942E0,8.94948E-1,2.2402368E0,0E0,1.2156348E0,0E0,0E0,0E0,0E0],"parents":[2147483647,0,0,2,2,4,4,5,5,6,6,8,8],"right_children":[2,-1,4,-1,6,8,10,-1,12,-1,-1,-1,-1],"split_conditions":[2.3741035E1,-9.600525E-2,2.628105E1,1.132967E-1,3.7932095E1,3.1601095E1,4.1609924E1,3.3143999E-3,3.248442E1,9.382057E-2,1.0726929E-3,-7.503968E-2,-1.19924545E-2],"split_indices":[0,0,0,0,0,0,0,0,0,0,0,0,0],"split_type":[0,0,0,0,0,0,0,0,0,0,0,0,0],"sum_hessian":[8E0,1E0,7E0,1E0,6E0,4E0,2E0,1E0,3E0,1E0,1E0,1E0,2E0],"tree_param":{"num_deleted":"0","num_feature":"4","num_nodes":"13","size_leaf_vector":"1"}},{"base_weights":[-2.168329E-1,-8.0747604E-1,1.2336121E0,2.2478993E-1,-1.2653404E0,9.147511E-2,1.0457992E-3,-9.360504E-2,1.1046429E-1,-9.9067815E-2,-1.275444E-1,3.2316209E-3,-1.2797452E-2],"categories":[],"categories_nodes":[],"categories_segments":[],"categories_sizes":[],"default_left":[0,0,0,0,0,0,0,0,0,0,0,0,0],"id":101,"left_children":[1,3,5,7,9,-1,-1,-1,-1,-1,11,-1,-1],"loss_changes":[8.70637E0,3.5929008E0,2.1296349E0,1.6619818E1,3.8206882E0,0E0,0E0,0E0,0E0,0E0,9.0571776E-2,0E0,0E0],"parents":[2147483647,0,0,1,1,2,2,3,3,4,4,10,10],"right_children":[2,4,6,8,10,-1,-1,-1,-1,-1,12,-1,-1],"split_conditions":[3.7932095E1,2.628105E1,4.1609924E1,2.3741035E1,5E1,9.147511E-2,1.0457992E-3,-9.360504E-2,1.1046429E-1,-9.9067815E-2,3.1601095E1,3.2316209E-3,-1.2797452E-2],"split_indices":[0,0,0,0,2,0,0,0,0,0,0,0,0],"split_type":[0,0,0,0,0,0,0,0,0,0,0,0,0],"sum_hessian":[8E0,6E0,2E0,2E0,4E0,1E0,1E0,1E0,1E0,2E0,2E0,1E0,1E0],"tree_param":{"num_deleted":"0","num_feature":"4","num_nodes":"13","size_leaf_vector":"1"}},{"base_weights":[-1.9377747E-1,-7.296133E-2,1.0896429E-1,3.490076E-1,-6.922531E-2,-2.1148683E-3,2.4677087E-2,-1.2477494E-2,1.6749572E-2,3.1507493E-3,-1.0570526E-2,-1.3844807E-3,1.0196686E-3],"categories":[],"categories_nodes":[],"categories_segments":[],"categories_sizes":[],"default_left":[0,0,0,0,0,0,0,0,0,0,0,0,0],"id":102,"left_children":[1,-1,3,5,7,-1,-1,-1,9,-1,11,-1,-1],"loss_changes":[3.9900463E0,0E0,4.0911916E-1,2.4710315E-1,9.720014E-2,0E0,0E0,0E0,6.9859806E-3,0E0,2.6849797E-3,0E0,0E0],"parents":[2147483647,0,0,2,2,3,3,4,4,8,8,10,10],"right_children":[2,-1,4,6,8,-1,-1,-1,10,-1,12,-1,-1],"split_conditions":[7.2E1,-7.296133E-2,5E1,8.9E1,7.7E1,-2.1148683E-3,2.4677087E-2,-1.2477494E-2,1.05E2,3.1507493E-3,1.06E2,-1.3844807E-3,1.0196686E-3],"split_indices":[3,0,2,3,3,0,0,0,3,0,3,0,0],"split_type":[0,0,0,0,0,0,0,0,0,0,0,0,0],"sum_hessian":[9E0,1E0,8E0,3E0,5E0,1E0,2E0,1E0,4E0,1E0,3E0,2E0,1E0],"tree_param":{"num_deleted":"0","num_feature":"4","num_nodes":"13","size_leaf_vector":"1"}},{"base_weights":[1.0494529E-1,-9.123039E-2,5.742154E-1,1.070858E-1,4.4327326E-2,-6.596764E-1,1.202891E0,3.0719757E-3,-8.553152E-1,8.922272E-2,9.941101E-4,-7.130394E-2,-9.485054E-3],"categories":[],"categories_nodes":[],"categories_segments":[],"categories_sizes":[],"default_left":[0,0,0,0,0,0,0,0,0,0,0,0,0],"id":103,"left_children":[1,-1,3,-1,5,7,9,-1,11,-1,-1,-1,-1],"loss_changes":[9.197052E0,0E0,6.549863E0,0E0,6.502951E0,7.5794125E-1,2.0285044E0,0E0,1.2491043E0,0E0,0E0,0E0,0E0],"parents":[2147483647,0,0,2,2,4,4,5,5,6,6,8,8],"right_children":[2,-1,4,-1,6,8,10,-1,12,-1,-1,-1,-1],"split_conditions":[2.3741035E1,-9.123039E-2,2.628105E1,1.070858E-1,3.7932095E1,3.1601095E1,4.1609924E1,3.0719757E-3,3.248442E1,8.922272E-2,9.941101E-4,-7.130394E-2,-9.485054E-3],"split_indices":[0,0,0,0,0,0,0,0,0,0,0,0,0],"split_type":[0,0,0,0,0,0,0,0,0,0,0,0,0],"sum_hessian":[8E0,1E0,7E0,1E0,6E0,4E0,2E0,1E0,3E0,1E0,1E0,1E0,2E0],"tree_param":{"num_deleted":"0","num_feature":"4","num_nodes":"13","size_leaf_vector":"1"}},{"base_weights":[9.532462E-2,-8.894958E-2,5.519881E-1,-8.496752E-1,1.5629212E0,-7.12141E-2,-1.8337886E-1,9.719791E-2,9.693146E-4,-1.8249511E-3,-1.1928463E-2],"categories":[],"categories_nodes":[],"categories_segments":[],"categories_sizes":[],"default_left":[0,0,0,0,0,0,0,0,0,0,0],"id":104,"left_children":[1,-1,3,5,7,-1,9,-1,-1,-1,-1],"loss_changes":[8.685369E0,0E0,1.26638775E1,1.2702508E0,2.9030342E0,0E0,1.5611522E-2,0E0,0E0,0E0,0E0],"parents":[2147483647,0,0,2,2,3,3,4,4,6,6],"right_children":[2,-1,4,6,8,-1,10,-1,-1,-1,-1],"split_conditions":[2.3741035E1,-8.894958E-2,8.9E1,2.6997694E1,4.1609924E1,-7.12141E-2,3.302777E1,9.719791E-2,9.693146E-4,-1.8249511E-3,-1.1928463E-2],"split_indices":[0,0,3,0,0,0,0,0,0,0,0],"split_type":[0,0,0,0,0,0,0,0,0,0,0],"sum_hessian":[8E0,1E0,7E0,3E0,4E0,1E0,2E0,3E0,1E0,1E0,1E0],"tree_param":{"num_deleted":"0","num_feature":"4","num_nodes":"11","size_leaf_vector":"1"}},{"base_weights":[-2.1387787E-1,-6.9433786E-2,7.095252E-2,2.8248024E-1,-8.189138E-2,-1.7793656E-3,2.001826E-2,-1.1630249E-2,-5.227661E-3,-1.5985489E-2,9.4509125E-4,5.6514743E-4,-1.4424642E-3],"categories":[],"categories_nodes":[],"categories_segments":[],"categories_sizes":[],"default_left":[0,0,0,0,0,0,0,0,0,0,0,0,0],"id":105,"left_children":[1,-1,3,5,7,-1,-1,-1,9,11,-1,-1,-1],"loss_changes":[3.4447112E0,0E0,3.1410918E-1,1.6422945E-1,6.810962E-2,0E0,0E0,0E0,1.6000591E-3,1.7302133E-3,0E0,0E0,0E0],"parents":[2147483647,0,0,2,2,3,3,4,4,8,8,9,9],"right_children":[2,-1,4,6,8,-1,-1,-1,10,12,-1,-1,-1],"split_conditions":[7.2E1,-6.9433786E-2,5E1,8.9E1,7.7E1,-1.7793656E-3,2.001826E-2,-1.1630249E-2,1.06E2,1.05E2,9.4509125E-4,5.6514743E-4,-1.4424642E-3],"split_indices":[3,0,2,3,3,0,0,0,3,3,0,0,0],"split_type":[0,0,0,0,0,0,0,0,0,0,0,0,0],"sum_hessian":[9E0,1E0,8E0,3E0,5E0,1E0,2E0,1E0,4E0,3E0,1E0,1E0,2E0],"tree_param":{"num_deleted":"0","num_feature":"4","num_nodes":"13","size_leaf_vector":"1"}},{"base_weights":[-2.0946006E-1,-6.894231E-1,1.1402613E0,-8.668976E-2,-2.9254204E-1,8.459816E-2,9.2144014E-4,1.014782E-1,-1.0178204E0,-1.4188461E0,-1.4384587E-1,-9.343313E-2,-1.7349244E-3,5.51033E-4,-1.1339474E-2],"categories":[],"categories_nodes":[],"categories_segments":[],"categories_sizes":[],"default_left":[0,0,0,0,0,0,0,0,0,0,0,0,0,0,0],"id":106,"left_children":[1,3,5,-1,7,-1,-1,-1,9,11,13,-1,-1,-1,-1],"loss_changes":[7.264286E0,2.8087234E0,1.8255703E0,0E0,1.3854943E1,0E0,0E0,0E0,1.8988218E0,2.4256105E0,4.1034933E-2,0E0,0E0,0E0,0E0],"parents":[2147483647,0,0,1,1,2,2,4,4,8,8,9,9,10,10],"right_children":[2,4,6,-1,8,-1,-1,-1,10,12,14,-1,-1,-1,-1],"split_conditions":[3.7932095E1,2.3741035E1,4.1609924E1,-8.668976E-2,2.628105E1,8.459816E-2,9.2144014E-4,1.014782E-1,5E1,3.248442E1,3.1601095E1,-9.343313E-2,-1.7349244E-3,5.51033E-4,-1.1339474E-2],"split_indices":[0,0,0,0,0,0,0,0,2,0,0,0,0,0,0],"split_type":[0,0,0,0,0,0,0,0,0,0,0,0,0,0,0],"sum_hessian":[9E0,7E0,2E0,1E0,6E0,1E0,1E0,1E0,5E0,3E0,2E0,2E0,1E0,1E0,1E0],"tree_param":{"num_deleted":"0","num_feature":"4","num_nodes":"15","size_leaf_vector":"1"}},{"base_weights":[-4.5492226E-1,-9.992301E-2,5.6218493E-1,-1.22101784E-1,8.248329E-2,-1.538976E-2,-1.1055946E-2,5.3730013E-4,-1.6915322E-3],"categories":[],"categories_nodes":[],"categories_segments":[],"categories_sizes":[],"default_left":[0,0,0,0,0,0,0,0,0],"id":107,"left_children":[1,-1,3,5,-1,7,-1,-1,-1],"loss_changes":[1.2113109E1,0E0,3.9221706E0,3.8862307E-2,0E0,1.8094438E-3,0E0,0E0,0E0],"parents":[2147483647,0,0,2,2,3,3,5,5],"right_children":[2,-1,4,6,-1,8,-1,-1,-1],"split_conditions":[2.6997694E1,-9.992301E-2,3.7932095E1,3.302777E1,8.248329E-2,3.1601095E1,-1.1055946E-2,5.3730013E-4,-1.6915322E-3],"split_indices":[0,0,0,0,0,0,0,0,0],"split_type":[0,0,0,0,0,0,0,0,0],"sum_hessian":[6E0,2E0,4E0,3E0,1E0,2E0,1E0,1E0,1E0],"tree_param":{"num_deleted":"0","num_feature":"4","num_nodes":"9","size_leaf_vector":"1"}},{"base_weights":[-7.3222876E-1,-1.2963829E0,8.042126E-2,-8.577526E-2,-1.6571808E-1,-1.6492844E-3,-1.0779572E-2],"categories":[],"categories_nodes":[],"categories_segments":[],"categories_sizes":[],"default_left":[0,0,0,0,0,0,0],"id":108,"left_children":[1,3,-1,-1,5,-1,-1],"loss_changes":[1.2649052E1,3.032917E0,0E0,0E0,1.2748003E-2,0E0,0E0],"parents":[2147483647,0,0,1,1,4,4],"right_children":[2,4,-1,-1,6,-1,-1],"split_conditions":[3.7932095E1,3.248442E1,8.042126E-2,-8.577526E-2,3.302777E1,-1.6492844E-3,-1.0779572E-2],"split_indices":[0,0,0,0,0,0,0],"split_type":[0,0,0,0,0,0,0],"sum_hessian":[7E0,6E0,1E0,4E0,2E0,1E0,1E0],"tree_param":{"num_deleted":"0","num_feature":"4","num_nodes":"7","size_leaf_vector":"1"}},{"base_weights":[1.3160215E-1,1.03583716E-1,-5.370223E-1,-9.27166E-1,-1.1015892E-1,-6.7929365E-2,-1.6080857E-3,2.6683807E-3,-9.1228485E-3],"categories":[],"categories_nodes":[],"categories_segments":[],"categories_sizes":[],"default_left":[0,0,0,0,0,0,0,0,0],"id":109,"left_children":[1,-1,3,5,7,-1,-1,-1,-1],"loss_changes":[1.0192793E1,0E0,8.970927E-1,1.1146772E0,5.702789E-2,0E0,0E0,0E0,0E0],"parents":[2147483647,0,0,2,2,3,3,4,4],"right_children":[2,-1,4,6,8,-1,-1,-1,-1],"split_conditions":[2.628105E1,1.03583716E-1,5E1,3.248442E1,3.1601095E1,-6.7929365E-2,-1.6080857E-3,2.6683807E-3,-9.1228485E-3],"split_indices":[0,0,2,0,0,0,0,0,0],"split_type":[0,0,0,0,0,0,0,0,0],"sum_hessian":[6E0,1E0,5E0,2E0,3E0,1E0,1E0,1E0,2E0],"tree_param":{"num_deleted":"0","num_feature":"4","num_nodes":"9","size_leaf_vector":"1"}},{"base_weights":[-1.7884779E-1,-5.9021473E-2,1.3286808E-1,2.3175305E-2,-9.208832E-2,-1.0281945E-2,-1.2290955E-2,2.6016235E-3,-2.5538127E-3],"categories":[],"categories_nodes":[],"categories_segments":[],"categories_sizes":[],"default_left":[0,0,0,0,0,0,0,0,0],"id":110,"left_children":[1,-1,3,-1,5,-1,7,-1,-1],"loss_changes":[2.6545126E0,0E0,5.6333745E-1,0E0,4.277768E-2,0E0,1.2636837E-2,0E0,0E0],"parents":[2147483647,0,0,2,2,4,4,6,6],"right_children":[2,-1,4,-1,6,-1,8,-1,-1],"split_conditions":[7.2E1,-5.9021473E-2,5E1,2.3175305E-2,7.7E1,-1.0281945E-2,1.05E2,2.6016235E-3,-2.5538127E-3],"split_indices":[3,0,2,0,3,0,3,0,0],"split_type":[0,0,0,0,0,0,0,0,0],"sum_hessian":[7E0,1E0,6E0,2E0,4E0,1E0,3E0,1E0,2E0],"tree_param":{"num_deleted":"0","num_feature":"4","num_nodes":"9","size_leaf_vector":"1"}},{"base_weights":[-5.282898E-1,-8.2405664E-2,-1.822977E-1,1.00414656E-1,-7.821383E-1,-1.2650366E0,-1.03705406E-1,-8.290431E-2,-2.1471977E-3,2.536583E-3,-8.604749E-3],"categories":[],"categories_nodes":[],"categories_segments":[],"categories_sizes":[],"default_left":[0,0,0,0,0,0,0,0,0,0,0],"id":111,"left_children":[1,-1,3,-1,5,7,9,-1,-1,-1,-1],"loss_changes":[3.1866033E0,0E0,1.2082806E1,0E0,2.1621075E0,1.8501668E0,5.097821E-2,0E0,0E0,0E0,0E0],"parents":[2147483647,0,0,2,2,4,4,5,5,6,6],"right_children":[2,-1,4,-1,6,8,10,-1,-1,-1,-1],"split_conditions":[2.3741035E1,-8.2405664E-2,2.628105E1,1.00414656E-1,5E1,3.248442E1,3.1601095E1,-8.290431E-2,-2.1471977E-3,2.536583E-3,-8.604749E-3],"split_indices":[0,0,0,0,2,0,0,0,0,0,0],"split_type":[0,0,0,0,0,0,0,0,0,0,0],"sum_hessian":[8E0,1E0,7E0,1E0,6E0,3E0,3E0,2E0,1E0,1E0,2E0],"tree_param":{"num_deleted":"0","num_feature":"4","num_nodes":"11","size_leaf_vector":"1"}},{"base_weights":[4.9993563E-1,-1.5871048E-1,7.459361E-1,-2.0935058E-3,-9.80978E-3,9.164597E-1,-2.6670457E-3,3.5639572E-1,7.891788E-2,2.2110876E-2,2.473259E-3],"categories":[],"categories_nodes":[],"categories_segments":[],"categories_sizes":[],"default_left":[0,0,0,0,0,0,0,0,0,0,0],"id":112,"left_children":[1,3,5,-1,-1,7,-1,9,-1,-1,-1],"loss_changes":[1.4146059E0,4.9245954E-3,8.666582E-1,0E0,0E0,1.2910061E0,0E0,8.349091E-2,0E0,0E0,0E0],"parents":[2147483647,0,0,1,1,2,2,5,5,7,7],"right_children":[2,4,6,-1,-1,8,-1,10,-1,-1,-1],"split_conditions":[8.9E1,5E1,1.06E2,-2.0935058E-3,-9.80978E-3,1.05E2,-2.6670457E-3,5E1,7.891788E-2,2.2110876E-2,2.473259E-3],"split_indices":[3,2,3,0,0,3,0,2,0,0,0],"split_type":[0,0,0,0,0,0,0,0,0,0,0],"sum_hessian":[7E0,2E0,5E0,1E0,1E0,4E0,1E0,3E0,1E0,2E0,1E0],"tree_param":{"num_deleted":"0","num_feature":"4","num_nodes":"11","size_leaf_vector":"1"}},{"base_weights":[-1.7577314E-1,9.7351454E-2,-7.5717765E-1,-1.2275276E0,-9.7533226E-2,-8.047441E-2,-2.0411492E-3,2.411461E-3,-8.109855E-3],"categories":[],"categories_nodes":[],"categories_segments":[],"categories_sizes":[],"default_left":[0,0,0,0,0,0,0,0,0],"id":113,"left_children":[1,-1,3,5,7,-1,-1,-1,-1],"loss_changes":[1.1347901E1,0E0,2.0521212E0,1.7473936E0,4.5524903E-2,0E0,0E0,0E0,0E0],"parents":[2147483647,0,0,2,2,3,3,4,4],"right_children":[2,-1,4,6,8,-1,-1,-1,-1],"split_conditions":[2.628105E1,9.7351454E-2,5E1,3.248442E1,3.1601095E1,-8.047441E-2,-2.0411492E-3,2.411461E-3,-8.109855E-3],"split_indices":[0,0,2,0,0,0,0,0,0],"split_type":[0,0,0,0,0,0,0,0,0],"sum_hessian":[7E0,1E0,6E0,3E0,3E0,2E0,1E0,1E0,2E0],"tree_param":{"num_deleted":"0","num_feature":"4","num_nodes":"9","size_leaf_vector":"1"}},{"base_weights":[-1.7236836E-1,-5.34091E-2,7.3131084E-2,2.1092607E-2,-1.13417946E-1,-9.361744E-3,-6.120758E-2,2.3511888E-3,-5.001068E-3],"categories":[],"categories_nodes":[],"categories_segments":[],"categories_sizes":[],"default_left":[0,0,0,0,0,0,0,0,0],"id":114,"left_children":[1,-1,3,-1,5,-1,7,-1,-1],"loss_changes":[2.057413E0,0E0,5.6827414E-1,0E0,1.1663862E-2,0E0,2.5707722E-2,0E0,0E0],"parents":[2147483647,0,0,2,2,4,4,6,6],"right_children":[2,-1,4,-1,6,-1,8,-1,-1],"split_conditions":[7.2E1,-5.34091E-2,5E1,2.1092607E-2,7.7E1,-9.361744E-3,1.05E2,2.3511888E-3,-5.001068E-3],"split_indices":[3,0,2,0,3,0,3,0,0],"split_type":[0,0,0,0,0,0,0,0,0],"sum_hessian":[8E0,1E0,7E0,2E0,5E0,1E0,4E0,1E0,3E0],"tree_param":{"num_deleted":"0","num_feature":"4","num_nodes":"9","size_leaf_vector":"1"}},{"base_weights":[-1.6976292E-1,-5.2073862E-2,6.9386005E-2,2.8066826E-1,-1.13517E-1,-2.517414E-3,2.0389494E-2,-9.127713E-3,-5.0619125E-2,2.2924424E-3,-4.9029035E-3],"categories":[],"categories_nodes":[],"categories_segments":[],"categories_sizes":[],"default_left":[0,0,0,0,0,0,0,0,0,0,0],"id":115,"left_children":[1,-1,3,5,7,-1,-1,-1,9,-1,-1],"loss_changes":[1.9484897E0,0E0,3.410139E-1,1.8884894E-1,1.2470737E-2,0E0,0E0,0E0,2.2801202E-2,0E0,0E0],"parents":[2147483647,0,0,2,2,3,3,4,4,8,8],"right_children":[2,-1,4,6,8,-1,-1,-1,10,-1,-1],"split_conditions":[7.2E1,-5.2073862E-2,5E1,8.9E1,7.7E1,-2.517414E-3,2.0389494E-2,-9.127713E-3,1.05E2,2.2924424E-3,-4.9029035E-3],"split_indices":[3,0,2,3,3,0,0,0,3,0,0],"split_type":[0,0,0,0,0,0,0,0,0,0,0],"sum_hessian":[8E0,1E0,7E0,3E0,4E0,1E0,2E0,1E0,3E0,1E0,2E0],"tree_param":{"num_deleted":"0","num_feature":"4","num_nodes":"11","size_leaf_vector":"1"}},{"base_weights":[-5.74152E-1,-8.450451E-2,-1.732908E-1,9.388065E-2,-8.2804364E-1,-1.1285257E0,-7.569313E-3,-7.67252E-2,2.235222E-3],"categories":[],"categories_nodes":[],"categories_segments":[],"categories_sizes":[],"default_left":[0,0,0,0,0,0,0,0,0],"id":116,"left_children":[1,-1,3,-1,5,7,-1,-1,-1],"loss_changes":[3.2858133E0,0E0,1.0954591E1,0E0,1.0490971E0,1.9738231E0,0E0,0E0,0E0],"parents":[2147483647,0,0,2,2,4,4,5,5],"right_children":[2,-1,4,-1,6,8,-1,-1,-1],"split_conditions":[2.3741035E1,-8.450451E-2,2.628105E1,9.388065E-2,3.248442E1,9.9E1,-7.569313E-3,-7.67252E-2,2.235222E-3],"split_indices":[0,0,0,0,0,3,0,0,0],"split_type":[0,0,0,0,0,0,0,0,0],"sum_hessian":[7E0,1E0,6E0,1E0,5E0,3E0,2E0,2E0,1E0],"tree_param":{"num_deleted":"0","num_feature":"4","num_nodes":"9","size_leaf_vector":"1"}},{"base_weights":[6.031969E-2,-8.239193E-2,4.798193E-1,9.153366E-2,2.531542E-2,-5.695511E-1,1.0083212E0,2.1793365E-3,-7.337322E-1,7.758465E-2,-1.9605637E-3,-6.239767E-2,-7.317034E-3],"categories":[],"categories_nodes":[],"categories_segments":[],"categories_sizes":[],"default_left":[0,0,0,0,0,0,0,0,0,0,0,0,0],"id":117,"left_children":[1,-1,3,-1,5,7,9,-1,11,-1,-1,-1,-1],"loss_changes":[7.2398105E0,0E0,4.865402E0,0E0,4.6675906E0,5.3530943E-1,1.7684429E0,0E0,1.0255704E0,0E0,0E0,0E0,0E0],"parents":[2147483647,0,0,2,2,4,4,5,5,6,6,8,8],"right_children":[2,-1,4,-1,6,8,10,-1,12,-1,-1,-1,-1],"split_conditions":[2.3741035E1,-8.239193E-2,2.628105E1,9.153366E-2,3.7932095E1,3.1601095E1,4.1609924E1,2.1793365E-3,3.248442E1,7.758465E-2,-1.9605637E-3,-6.239767E-2,-7.317034E-3],"split_indices":[0,0,0,0,0,0,0,0,0,0,0,0,0],"split_type":[0,0,0,0,0,0,0,0,0,0,0,0,0],"sum_hessian":[8E0,1E0,7E0,1E0,6E0,4E0,2E0,1E0,3E0,1E0,1E0,1E0,2E0],"tree_param":{"num_deleted":"0","num_feature":"4","num_nodes":"13","size_leaf_vector":"1"}},{"base_weights":[3.7080812E-1,-8.033218E-2,8.8282174E-1,-1.4146297E-1,1.3208282E0,-2.0823479E-3,-8.527375E-3,8.350754E-2,-1.9115448E-3],"categories":[],"categories_nodes":[],"categories_segments":[],"categories_sizes":[],"default_left":[0,0,0,0,0,0,0,0,0],"id":118,"left_children":[1,-1,3,5,7,-1,-1,-1,-1],"loss_changes":[9.518238E0,0E0,3.3273525E0,1.6065203E-3,2.4376001E0,0E0,0E0,0E0,0E0],"parents":[2147483647,0,0,2,2,3,3,4,4],"right_children":[2,-1,4,6,8,-1,-1,-1,-1],"split_conditions":[2.3741035E1,-8.033218E-2,8.9E1,3.302777E1,4.1609924E1,-2.0823479E-3,-8.527375E-3,8.350754E-2,-1.9115448E-3],"split_indices":[0,0,3,0,0,0,0,0,0],"split_type":[0,0,0,0,0,0,0,0,0],"sum_hessian":[7E0,1E0,6E0,2E0,4E0,1E0,1E0,3E0,1E0],"tree_param":{"num_deleted":"0","num_feature":"4","num_nodes":"9","size_leaf_vector":"1"}},{"base_weights":[-1.6624832E-1,-4.885626E-2,3.2418568E-2,2.2201729E-1,-9.9383675E-2,-2.0302774E-3,1.6154671E-2,-8.314229E-3,-5.2746583E-2,3.7002563E-5,-3.3151626E-3],"categories":[],"categories_nodes":[],"categories_segments":[],"categories_sizes":[],"default_left":[0,0,0,0,0,0,0,0,0,0,0],"id":119,"left_children":[1,-1,3,5,7,-1,-1,-1,9,-1,-1],"loss_changes":[1.6426208E0,0E0,2.4697073E-1,1.19298995E-1,9.949435E-3,0E0,0E0,0E0,3.6745723E-3,0E0,0E0],"parents":[2147483647,0,0,2,2,3,3,4,4,8,8],"right_children":[2,-1,4,6,8,-1,-1,-1,10,-1,-1],"split_conditions":[7.2E1,-4.885626E-2,5E1,8.9E1,7.7E1,-2.0302774E-3,1.6154671E-2,-8.314229E-3,1.05E2,3.7002563E-5,-3.3151626E-3],"split_indices":[3,0,2,3,3,0,0,0,3,0,0],"split_type":[0,0,0,0,0,0,0,0,0,0,0],"sum_hessian":[9E0,1E0,8E0,3E0,5E0,1E0,2E0,1E0,4E0,1E0,3E0],"tree_param":{"num_deleted":"0","num_feature":"4","num_nodes":"11","size_leaf_vector":"1"}},{"base_weights":[-1.7183219E-1,-4.763489E-2,4.4863224E-2,1.5616226E-2,-9.634463E-2,-8.106328E-3,-5.076294E-2,3.604889E-5,-3.190708E-3],"categories":[],"categories_nodes":[],"categories_segments":[],"categories_sizes":[],"default_left":[0,0,0,0,0,0,0,0,0],"id":120,"left_children":[1,-1,3,-1,5,-1,7,-1,-1],"loss_changes":[1.565631E0,0E0,3.3223188E-1,0E0,9.760682E-3,0E0,3.4056492E-3,0E0,0E0],"parents":[2147483647,0,0,2,2,4,4,6,6],"right_children":[2,-1,4,-1,6,-1,8,-1,-1],"split_conditions":[7.2E1,-4.763489E-2,5E1,1.5616226E-2,7.7E1,-8.106328E-3,1.05E2,3.604889E-5,-3.190708E-3],"split_indices":[3,0,2,0,3,0,3,0,0],"split_type":[0,0,0,0,0,0,0,0,0],"sum_hessian":[8E0,1E0,7E0,2E0,5E0,1E0,4E0,1E0,3E0],"tree_param":{"num_deleted":"0","num_feature":"4","num_nodes":"9","size_leaf_vector":"1"}},{"base_weights":[-1.710239E-1,-5.610018E-1,7.371998E-2,-7.816124E-2,-1.9450924E-1,8.636322E-2,-8.026822E-1,-1.1253376E0,-1.04914345E-1,-7.3442526E-2,-2.3699761E-3,3.5095214E-5,-7.903672E-3],"categories":[],"categories_nodes":[],"categories_segments":[],"categories_sizes":[],"default_left":[0,0,0,0,0,0,0,0,0,0,0,0,0],"id":121,"left_children":[1,3,-1,-1,5,-1,7,9,11,-1,-1,-1,-1],"loss_changes":[6.602249E0,